{"learner":{"attributes":{"scikit_learn":"{\"_estimator_type\": \"classifier\"}"},"feature_names":[],"feature_types":[],"gradient_booster":{"model":{"gbtree_model_param":{"num_parallel_tree":"1","num_trees":"500"},"iteration_indptr":[0,1,2,3,4,5,6,7,8,9,10,11,12,13,14,15,16,17,18,19,20,21,22,23,24,25,26,27,28,29,30,31,32,33,34,35,36,37,38,39,40,41,42,43,44,45,46,47,48,49,50,51,52,53,54,55,56,57,58,59,60,61,62,63,64,65,66,67,68,69,70,71,72,73,74,75,76,77,78,79,80,81,82,83,84,85,86,87,88,89,90,91,92,93,94,95,96,97,98,99,100,101,102,103,104,105,106,107,108,109,110,111,112,113,114,115,116,117,118,119,120,121,122,123,124,125,126,127,128,129,130,131,132,133,134,135,136,137,138,139,140,141,142,143,144,145,146,147,148,149,150,151,152,153,154,155,156,157,158,159,160,161,162,163,164,165,166,167,168,169,170,171,172,173,174,175,176,177,178,179,180,181,182,183,184,185,186,187,188,189,190,191,192,193,194,195,196,197,198,199,200,201,202,203,204,205,206,207,208,209,210,211,212,213,214,215,216,217,218,219,220,221,222,223,224,225,226,227,228,229,230,231,232,233,234,235,236,237,238,239,240,241,242,243,244,245,246,247,248,249,250,251,252,253,254,255,256,257,258,259,260,261,262,263,264,265,266,267,268,269,270,271,272,273,274,275,276,277,278,279,280,281,282,283,284,285,286,287,288,289,290,291,292,293,294,295,296,297,298,299,300,301,302,303,304,305,306,307,308,309,310,311,312,313,314,315,316,317,318,319,320,321,322,323,324,325,326,327,328,329,330,331,332,333,334,335,336,337,338,339,340,341,342,343,344,345,346,347,348,349,350,351,352,353,354,355,356,357,358,359,360,361,362,363,364,365,366,367,368,369,370,371,372,373,374,375,376,377,378,379,380,381,382,383,384,385,386,387,388,389,390,391,392,393,394,395,396,397,398,399,400,401,402,403,404,405,406,407,408,409,410,411,412,413,414,415,416,417,418,419,420,421,422,423,424,425,426,427,428,429,430,431,432,433,434,435,436,437,438,439,440,441,442,443,444,445,446,447,448,449,450,451,452,453,454,455,456,457,458,459,460,461,462,463,464,465,466,467,468,469,470,471,472,473,474,475,476,477,478,479,480,481,482,483,484,485,486,487,488,489,490,491,492,493,494,495,496,497,498,499,500],"tree_info":[0,0,0,0,0,0,0,0,0,0,0,0,0,0,0,0,0,0,0,0,0,0,0,0,0,0,0,0,0,0,0,0,0,0,0,0,0,0,0,0,0,0,0,0,0,0,0,0,0,0,0,0,0,0,0,0,0,0,0,0,0,0,0,0,0,0,0,0,0,0,0,0,0,0,0,0,0,0,0,0,0,0,0,0,0,0,0,0,0,0,0,0,0,0,0,0,0,0,0,0,0,0,0,0,0,0,0,0,0,0,0,0,0,0,0,0,0,0,0,0,0,0,0,0,0,0,0,0,0,0,0,0,0,0,0,0,0,0,0,0,0,0,0,0,0,0,0,0,0,0,0,0,0,0,0,0,0,0,0,0,0,0,0,0,0,0,0,0,0,0,0,0,0,0,0,0,0,0,0,0,0,0,0,0,0,0,0,0,0,0,0,0,0,0,0,0,0,0,0,0,0,0,0,0,0,0,0,0,0,0,0,0,0,0,0,0,0,0,0,0,0,0,0,0,0,0,0,0,0,0,0,0,0,0,0,0,0,0,0,0,0,0,0,0,0,0,0,0,0,0,0,0,0,0,0,0,0,0,0,0,0,0,0,0,0,0,0,0,0,0,0,0,0,0,0,0,0,0,0,0,0,0,0,0,0,0,0,0,0,0,0,0,0,0,0,0,0,0,0,0,0,0,0,0,0,0,0,0,0,0,0,0,0,0,0,0,0,0,0,0,0,0,0,0,0,0,0,0,0,0,0,0,0,0,0,0,0,0,0,0,0,0,0,0,0,0,0,0,0,0,0,0,0,0,0,0,0,0,0,0,0,0,0,0,0,0,0,0,0,0,0,0,0,0,0,0,0,0,0,0,0,0,0,0,0,0,0,0,0,0,0,0,0,0,0,0,0,0,0,0,0,0,0,0,0,0,0,0,0,0,0,0,0,0,0,0,0,0,0,0,0,0,0,0,0,0,0,0,0,0,0,0,0,0,0,0,0,0,0,0,0,0,0,0,0,0,0,0,0,0,0,0,0,0,0,0,0,0,0,0,0,0,0,0,0,0,0,0,0,0,0,0,0,0,0,0,0,0,0,0,0,0,0,0,0,0,0,0,0,0,0,0,0,0,0,0,0,0,0,0],"trees":[{"base_weights":[-1.4305569E-8,-1.05592E0,1.1175305E0,-1.2266256E0,-9.388114E-3,5.318202E-2,2.5200384E0,-4.495151E-1,-9.6395695E-1,2.4162624E0,-4.4317415E-1,-5.4686016E-1,2.7382283E0,-4.4041416E-1,2.7319674E0,2.2151268E-1,-1.4703512E0,8.746528E-1,-4.1907266E-1,-4.4928974E-1,1.2133207E0,8.844053E-1,-4.106683E-1,8.8815105E-1,1.9095296E0,-3.5398102E-1,3.7722522E-1,-2.3682795E-1,-4.4234648E-1,-4.2855984E-1,4.5114842E-1,-4.3988886E-1,8.718568E-1],"categories":[],"categories_nodes":[],"categories_segments":[],"categories_sizes":[],"default_left":[0,0,0,0,0,0,0,0,0,0,0,0,0,0,0,0,0,0,0,0,0,0,0,0,0,0,0,0,0,0,0,0,0],"id":0,"left_children":[1,3,5,7,9,11,13,-1,15,17,-1,19,21,-1,23,25,27,-1,-1,-1,29,-1,-1,-1,31,-1,-1,-1,-1,-1,-1,-1,-1],"loss_changes":[5.17099E3,4.0251367E2,3.1778647E3,1.3683545E2,1.1322233E3,1.9532556E3,7.803467E2,0E0,5.9335535E2,2.3230103E2,0E0,1.6602444E3,1.9483386E2,0E0,1.5834521E2,4.3200256E2,7.862549E-1,0E0,0E0,0E0,2.6930902E2,0E0,0E0,0E0,6.5210754E2,0E0,0E0,0E0,0E0,0E0,0E0,0E0,0E0],"parents":[2147483647,0,0,1,1,2,2,3,3,4,4,5,5,6,6,8,8,9,9,11,11,12,12,14,14,15,15,16,16,20,20,24,24],"right_children":[2,4,6,8,10,12,14,-1,16,18,-1,20,22,-1,24,26,28,-1,-1,-1,30,-1,-1,-1,32,-1,-1,-1,-1,-1,-1,-1,-1],"split_conditions":[6.213433E4,1E0,3.3559647E5,1E0,6.341699E4,1E0,3.3509453E5,-4.495151E-1,6.16992E4,1.33764E3,-4.4317415E-1,1E0,1.33764E3,-4.4041416E-1,3.7259247E5,1.495E3,6.341699E4,8.746528E-1,-4.1907266E-1,-4.4928974E-1,6.16992E4,8.844053E-1,-4.106683E-1,8.8815105E-1,1E0,-3.5398102E-1,3.7722522E-1,-2.3682795E-1,-4.4234648E-1,-4.2855984E-1,4.5114842E-1,-4.3988886E-1,8.718568E-1],"split_indices":[1,6,0,3,0,6,1,0,0,2,0,3,2,0,2,1,0,0,0,0,0,0,0,0,3,0,0,0,0,0,0,0,0],"split_type":[0,0,0,0,0,0,0,0,0,0,0,0,0,0,0,0,0,0,0,0,0,0,0,0,0,0,0,0,0,0,0,0,0],"sum_hessian":[4.380111E3,2.252165E3,2.127946E3,1.936173E3,3.1599197E2,1.2104137E3,9.175322E2,9.493092E2,9.8686383E2,1.1888587E2,1.9710611E2,9.8997485E2,2.2043884E2,4.5998833E1,8.715334E2,2.9554803E2,6.913158E2,1.0533066E2,1.3555211E1,6.4287256E2,3.471023E2,2.0999466E2,1.044418E1,6.799827E2,1.9155069E2,1.2555237E2,1.6999568E2,5.3331976E0,6.8598254E2,3.3999138E1,3.1310315E2,4.3554447E1,1.4799625E2],"tree_param":{"num_deleted":"0","num_feature":"7","num_nodes":"33","size_leaf_vector":"1"}},{"base_weights":[-4.9970903E-2,-9.3051714E-1,7.0064116E-1,-6.000235E-1,-3.9087602E-1,-3.9521536E-1,1.0376129E0,3.9768362E-1,-3.9500326E-1,1.5878401E0,2.4386911E-1,-1.1491327E0,8.5584044E-1,1.2589449E0,1.7736655E0,-3.953997E-1,1.2233491E0,7.8667325E-1,-3.9366704E-1,1.2943198E-1,5.012496E-1,-3.9394352E-1,4.4716564E-1,5.368259E-1,-3.3811632E-1,2.3916519E-1,5.4252166E-1],"categories":[],"categories_nodes":[],"categories_segments":[],"categories_sizes":[],"default_left":[0,0,0,0,0,0,0,0,0,0,0,0,0,0,0,0,0,0,0,0,0,0,0,0,0,0,0],"id":1,"left_children":[1,3,5,7,-1,-1,9,11,-1,13,15,17,19,21,23,-1,25,-1,-1,-1,-1,-1,-1,-1,-1,-1,-1],"loss_changes":[2.7042466E3,2.3094092E2,1.5033407E3,7.150742E2,0E0,0E0,8.264673E2,2.9758826E2,0E0,6.609375E1,1.189185E3,6.252826E1,1.1115967E2,2.444455E2,3.4549316E1,0E0,1.1763153E2,0E0,0E0,0E0,0E0,0E0,0E0,0E0,0E0,0E0,0E0],"parents":[2147483647,0,0,1,1,2,2,3,3,6,6,7,7,9,9,10,10,11,11,12,12,13,13,14,14,16,16],"right_children":[2,4,6,8,-1,-1,10,12,-1,14,16,18,20,22,24,-1,26,-1,-1,-1,-1,-1,-1,-1,-1,-1,-1],"split_conditions":[5.4632E4,5.524748E4,5.344385E4,1E0,-3.9087602E-1,-3.9521536E-1,1.1355528E5,9E1,-3.9500326E-1,1E0,1E0,2.1583E2,1E0,1E0,1.33764E3,-3.953997E-1,5.413037E5,7.8667325E-1,-3.9366704E-1,1.2943198E-1,5.012496E-1,-3.9394352E-1,4.4716564E-1,5.368259E-1,-3.3811632E-1,2.3916519E-1,5.4252166E-1],"split_indices":[1,0,0,5,0,0,2,1,0,6,3,0,6,3,2,0,0,0,0,0,0,0,0,0,0,0,0],"split_type":[0,0,0,0,0,0,0,0,0,0,0,0,0,0,0,0,0,0,0,0,0,0,0,0,0,0,0],"sum_hessian":[4.0894766E3,1.881749E3,2.2077275E3,9.983562E2,8.8339276E2,3.1548294E2,1.8922446E3,4.175287E2,5.808275E2,1.1169612E3,7.752834E2,9.506493E1,3.2246375E2,4.0605447E2,7.109067E2,2.986746E2,4.7660883E2,3.315584E0,9.174935E1,2.1304933E2,1.0941441E2,3.3157505E1,3.7289697E2,7.0744763E2,3.4590764E0,2.771248E2,1.9948404E2],"tree_param":{"num_deleted":"0","num_feature":"7","num_nodes":"27","size_leaf_vector":"1"}},{"base_weights":[-5.8222372E-2,-8.281503E-1,5.478487E-1,-5.1818067E-1,-3.5825473E-1,-3.6398354E-1,8.077511E-1,3.0970147E-1,-3.6366495E-1,1.231216E0,1.6515085E-1,-8.1456435E-1,6.875451E-1,9.2181236E-1,1.4259497E0,-3.6332157E-1,8.937084E-1,5.2705854E-1,-3.67067E-1,1.135282E-1,3.9562988E-1,-3.6011758E-1,3.2941023E-1,4.3183738E-1,-3.022418E-1,1.559672E-1,4.3011987E-1],"categories":[],"categories_nodes":[],"categories_segments":[],"categories_sizes":[],"default_left":[0,0,0,0,0,0,0,0,0,0,0,0,0,0,0,0,0,0,0,0,0,0,0,0,0,0,0],"id":2,"left_children":[1,3,5,7,-1,-1,9,11,-1,13,15,17,19,21,23,-1,25,-1,-1,-1,-1,-1,-1,-1,-1,-1,-1],"loss_changes":[1.645231E3,1.7557422E2,9.040032E2,4.845294E2,0E0,0E0,4.6777502E2,1.6413023E2,0E0,6.1134766E1,6.871823E2,1.0449546E2,5.5840347E1,1.5210245E2,2.2300049E1,0E0,8.969205E1,0E0,0E0,0E0,0E0,0E0,0E0,0E0,0E0,0E0,0E0],"parents":[2147483647,0,0,1,1,2,2,3,3,6,6,7,7,9,9,10,10,11,11,12,12,13,13,14,14,16,16],"right_children":[2,4,6,8,-1,-1,10,12,-1,14,16,18,20,22,24,-1,26,-1,-1,-1,-1,-1,-1,-1,-1,-1,-1],"split_conditions":[5.305E4,5.344385E4,5.138483E4,1E0,-3.5825473E-1,-3.6398354E-1,1.2746016E5,1.01E3,-3.6366495E-1,1E0,1E0,9.3129E2,1E0,1E0,1.33764E3,-3.6332157E-1,4.7910784E5,5.2705854E-1,-3.67067E-1,1.135282E-1,3.9562988E-1,-3.6011758E-1,3.2941023E-1,4.3183738E-1,-3.022418E-1,1.559672E-1,4.3011987E-1],"split_indices":[1,0,0,5,0,0,2,1,0,6,3,0,6,3,2,0,0,0,0,0,0,0,0,0,0,0,0],"split_type":[0,0,0,0,0,0,0,0,0,0,0,0,0,0,0,0,0,0,0,0,0,0,0,0,0,0,0],"sum_hessian":[3.5237915E3,1.5519242E3,1.9718674E3,8.416226E2,7.103016E2,2.5310846E2,1.7187589E3,3.8405524E2,4.5756738E2,1.0354774E3,6.832815E2,9.6315285E1,2.8773993E2,4.021899E2,6.3328754E2,2.3628471E2,4.469968E2,1.2764766E1,8.3550514E1,1.9422485E2,9.351509E1,3.0390553E1,3.7179935E2,6.301977E2,3.0898514E0,2.6530743E2,1.8168938E2],"tree_param":{"num_deleted":"0","num_feature":"7","num_nodes":"27","size_leaf_vector":"1"}},{"base_weights":[-6.0895313E-2,-6.394276E-1,5.763922E-1,-3.699472E-1,-1.2112799E0,-1.257323E0,8.9802647E-1,1.2372706E-1,-3.4397146E-1,-1.1117761E0,-1.8022969E0,-3.4491897E-1,-1.8089744E0,1.1905435E0,3.216286E-1,-8.804053E-1,4.3535775E-1,-9.8516506E-1,-3.4111923E-1,-3.7166655E-1,-2.0124176E0,-3.272613E-1,-6.6624653E-1,1.0388372E0,1.283466E0,-3.43344E-1,9.7312796E-1,3.566097E-1,-3.3878762E-1,5.2743793E-2,3.3385175E-1,5.7167155E-1,-3.3724123E-1,-4.3924674E-1,-6.387297E-1,3.4430614E-1,-5.469726E-1,-4.776136E-1,3.963015E-1,2.1548204E-1,3.8941067E-1],"categories":[],"categories_nodes":[],"categories_segments":[],"categories_sizes":[],"default_left":[0,0,0,0,0,0,0,0,0,0,0,0,0,0,0,0,0,0,0,0,0,0,0,0,0,0,0,0,0,0,0,0,0,0,0,0,0,0,0,0,0],"id":3,"left_children":[1,3,5,7,9,11,13,15,-1,17,19,-1,21,23,25,27,29,31,-1,-1,33,-1,-1,35,37,-1,39,-1,-1,-1,-1,-1,-1,-1,-1,-1,-1,-1,-1,-1,-1],"loss_changes":[1.089704E3,2.3828284E2,8.306239E2,4.0439996E2,2.7151184E1,1.0401886E1,2.014627E2,2.0238324E2,0E0,2.4676514E-1,5.7734375E0,0E0,7.2120667E0,9.856201E0,3.8736807E2,8.024757E1,8.6547066E1,3.3702606E1,0E0,0E0,3.387451E-2,0E0,0E0,9.7658325E1,5.4779785E1,0E0,2.2295227E1,0E0,0E0,0E0,0E0,0E0,0E0,0E0,0E0,0E0,0E0,0E0,0E0,0E0,0E0],"parents":[2147483647,0,0,1,1,2,2,3,3,4,4,5,5,6,6,7,7,9,9,10,10,12,12,13,13,14,14,15,15,16,16,17,17,20,20,23,23,24,24,26,26],"right_children":[2,4,6,8,10,12,14,16,-1,18,20,-1,22,24,26,28,30,32,-1,-1,34,-1,-1,36,38,-1,40,-1,-1,-1,-1,-1,-1,-1,-1,-1,-1,-1,-1,-1,-1],"split_conditions":[1.1011E5,1.133608E5,1.0871127E5,1E0,5.4632E4,1E0,2.1120633E5,1.495E3,-3.4397146E-1,3.6275E4,1E0,-3.4491897E-1,6.16992E4,4.382246E5,1E0,1.59475E3,1E0,9E1,-3.4111923E-1,-3.7166655E-1,6.213433E4,-3.272613E-1,-6.6624653E-1,4.424603E5,3.9185544E5,-3.43344E-1,5.580505E5,3.566097E-1,-3.3878762E-1,5.2743793E-2,3.3385175E-1,5.7167155E-1,-3.3724123E-1,-4.3924674E-1,-6.387297E-1,3.4430614E-1,-5.469726E-1,-4.776136E-1,3.963015E-1,2.1548204E-1,3.8941067E-1],"split_indices":[1,0,0,5,1,3,2,1,0,2,3,0,0,0,3,0,6,1,0,0,1,0,0,1,1,0,0,0,0,0,0,0,0,0,0,0,0,0,0,0,0],"split_type":[0,0,0,0,0,0,0,0,0,0,0,0,0,0,0,0,0,0,0,0,0,0,0,0,0,0,0,0,0,0,0,0,0,0,0,0,0,0,0,0,0],"sum_hessian":[2.9535996E3,1.5481653E3,1.4054343E3,1.0534044E3,4.947608E2,2.0929329E2,1.1961411E3,6.445354E2,4.0886902E2,4.259319E2,6.88289E1,1.7771602E2,3.1577276E1,7.927577E2,4.0338336E2,1.5222212E2,4.923133E2,7.7560905E1,3.4837097E2,2.056987E1,4.8259037E1,1.2839259E1,1.8738018E1,3.0575592E2,4.8700177E2,1.2387138E2,2.7951196E2,1.593891E1,1.3628322E2,3.5685904E2,1.3545425E2,2.9746172E0,7.458629E1,1.0845683E1,3.7413353E1,2.9513058E2,1.0625333E1,5.7421093E0,4.8125967E2,1.5844211E2,1.21069855E2],"tree_param":{"num_deleted":"0","num_feature":"7","num_nodes":"41","size_leaf_vector":"1"}},{"base_weights":[-6.0187884E-2,-7.781103E-1,3.533129E-1,-4.2732424E-1,-1.1126033E0,-1.1453893E0,5.35688E-1,3.269181E-1,-3.3034313E-1,-1.3398234E0,-1.0627736E0,-3.992058E-1,-3.466508E-1,2.512641E-1,1.12352E0,-7.9100424E-1,5.2022177E-1,-3.220923E-1,-1.5763402E0,-9.347864E-1,-3.26792E-1,-2.4263664E-1,1.05038084E-1,4.8905203E-1,-1.1986485E0,-3.8194793E-1,3.612219E-1,2.9898083E-1,-3.2170892E-1,1.8011878E-1,-3.7045267E-1,-4.9338445E-1,-2.7674484E-1,1.801539E-1,-3.265949E-1,7.4083865E-2,3.1924182E-1,-3.3038974E-1,-6.29479E-1],"categories":[],"categories_nodes":[],"categories_segments":[],"categories_sizes":[],"default_left":[0,0,0,0,0,0,0,0,0,0,0,0,0,0,0,0,0,0,0,0,0,0,0,0,0,0,0,0,0,0,0,0,0,0,0,0,0,0,0],"id":4,"left_children":[1,3,5,7,9,11,13,15,-1,17,19,21,-1,23,25,27,29,-1,31,33,-1,-1,-1,35,37,-1,-1,-1,-1,-1,-1,-1,-1,-1,-1,-1,-1,-1,-1],"loss_changes":[7.3112177E2,1.0513428E2,4.2777985E2,2.2446443E2,3.7855835E0,8.206177E-1,2.3278186E2,4.5539986E1,0E0,3.2760162E0,2.7963257E-1,1.4492567E0,0E0,3.249199E2,8.923193E1,1.6752657E1,2.5879333E1,0E0,2.530136E-1,1.7821804E1,0E0,0E0,0E0,1.1236029E2,9.322235E0,0E0,0E0,0E0,0E0,0E0,0E0,0E0,0E0,0E0,0E0,0E0,0E0,0E0,0E0],"parents":[2147483647,0,0,1,1,2,2,3,3,4,4,5,5,6,6,7,7,9,9,10,10,11,11,13,13,14,14,15,15,16,16,18,18,19,19,23,23,24,24],"right_children":[2,4,6,8,10,12,14,16,-1,18,20,22,-1,24,26,28,30,-1,32,34,-1,-1,-1,36,38,-1,-1,-1,-1,-1,-1,-1,-1,-1,-1,-1,-1,-1,-1],"split_conditions":[3.2304E4,3.246369E4,3.246369E4,1E0,6.16992E4,3.3216E4,5.580505E5,9E1,-3.3034313E-1,1.495E3,4.2797E4,1.751795E4,-3.466508E-1,5.610908E5,5.0453272E5,2.1583E2,1E0,-3.220923E-1,1E0,9E1,-3.26792E-1,-2.4263664E-1,1.05038084E-1,1E0,1E0,-3.8194793E-1,3.612219E-1,2.9898083E-1,-3.2170892E-1,1.8011878E-1,-3.7045267E-1,-4.9338445E-1,-2.7674484E-1,1.801539E-1,-3.265949E-1,7.4083865E-2,3.1924182E-1,-3.3038974E-1,-6.29479E-1],"split_indices":[1,0,0,5,0,1,0,1,0,1,2,0,0,1,1,0,4,0,5,1,0,0,0,6,3,0,0,0,0,0,0,0,0,0,0,0,0,0,0],"split_type":[0,0,0,0,0,0,0,0,0,0,0,0,0,0,0,0,0,0,0,0,0,0,0,0,0,0,0,0,0,0,0,0,0,0,0,0,0,0,0],"sum_hessian":[2.4609119E3,8.9906616E2,1.5618456E3,4.3995676E2,4.591094E2,1.6886716E2,1.3929785E3,2.0783298E2,2.3212378E2,7.791854E1,3.8119086E2,2.799364E0,1.660678E2,9.3972015E2,4.5325833E2,3.0183336E1,1.7764964E2,3.926643E1,3.865211E1,7.167636E1,3.095145E2,1.758712E0,1.040652E0,8.0788794E2,1.3183218E2,1.425731E1,4.39001E2,3.7589328E0,2.6424404E1,1.70518E2,7.1316338E0,3.3625725E1,5.026387E0,6.2644677E0,6.5411896E1,5.6954486E2,2.3834311E2,1.2096632E2,1.0865864E1],"tree_param":{"num_deleted":"0","num_feature":"7","num_nodes":"39","size_leaf_vector":"1"}},{"base_weights":[-5.928235E-2,-5.2062523E-1,4.4134048E-1,-2.607953E-1,-1.1112063E0,-1.1675502E0,6.948752E-1,1.13384634E-1,-3.2176095E-1,-1.0183295E0,-4.545666E-1,-3.225031E-1,-1.4703034E0,9.565462E-1,2.3226702E-1,-3.6216897E-1,5.4598457E-1,-8.599624E-1,-3.16464E-1,-8.4816396E-1,-4.90434E-1,7.754684E-1,1.0943099E0,-3.2312697E-1,6.8645746E-1,1.18097335E-1,-3.6761934E-1,-4.767786E-1,2.206879E-1,2.8284207E-1,-3.1477752E-1,-2.8210962E-1,-9.285003E-2,2.576151E-1,-4.1311413E-1,-3.6549506E-1,3.4166867E-1,1.4164409E-1,3.371631E-1],"categories":[],"categories_nodes":[],"categories_segments":[],"categories_sizes":[],"default_left":[0,0,0,0,0,0,0,0,0,0,0,0,0,0,0,0,0,0,0,0,0,0,0,0,0,0,0,0,0,0,0,0,0,0,0,0,0,0,0],"id":5,"left_children":[1,3,5,7,9,11,13,15,-1,17,-1,-1,19,21,23,25,27,29,-1,31,-1,33,35,-1,37,-1,-1,-1,-1,-1,-1,-1,-1,-1,-1,-1,-1,-1,-1],"loss_changes":[4.8126758E2,1.6610828E2,4.084808E2,2.2925119E2,1.0877594E1,2.2415771E0,1.0436441E2,1.0660977E2,0E0,6.683655E-1,0E0,0E0,1.6032448E0,1.2909637E1,1.8715674E2,1.6163547E2,1.1101047E2,2.0253796E1,0E0,1.1559677E-1,0E0,4.4499207E1,3.3433044E1,0E0,2.1344002E1,0E0,0E0,0E0,0E0,0E0,0E0,0E0,0E0,0E0,0E0,0E0,0E0,0E0,0E0],"parents":[2147483647,0,0,1,1,2,2,3,3,4,4,5,5,6,6,7,7,9,9,12,12,13,13,14,14,15,15,16,16,17,17,19,19,21,21,22,22,24,24],"right_children":[2,4,6,8,10,12,14,16,-1,18,-1,-1,20,22,24,26,28,30,-1,32,-1,34,36,-1,38,-1,-1,-1,-1,-1,-1,-1,-1,-1,-1,-1,-1,-1,-1],"split_conditions":[1.0586107E5,1.0685022E5,1.0492031E5,1E0,5.4632E4,1E0,2.1120633E5,2.1534E4,-3.2176095E-1,4.2797E4,-4.545666E-1,-3.225031E-1,5.344385E4,4.382246E5,1E0,2.152213E4,2.152213E4,9E1,-3.16464E-1,3.2605284E5,-4.90434E-1,4.424603E5,3.9185544E5,-3.2312697E-1,5.580505E5,1.18097335E-1,-3.6761934E-1,-4.767786E-1,2.206879E-1,2.8284207E-1,-3.1477752E-1,-2.8210962E-1,-9.285003E-2,2.576151E-1,-4.1311413E-1,-3.6549506E-1,3.4166867E-1,1.4164409E-1,3.371631E-1],"split_indices":[1,0,0,5,1,3,2,1,0,2,0,0,0,0,3,0,0,1,0,1,0,1,1,0,0,0,0,0,0,0,0,0,0,0,0,0,0,0,0],"split_type":[0,0,0,0,0,0,0,0,0,0,0,0,0,0,0,0,0,0,0,0,0,0,0,0,0,0,0,0,0,0,0,0,0,0,0,0,0,0,0],"sum_hessian":[2.0817864E3,1.0833751E3,9.9841125E2,7.533677E2,3.3000745E2,1.3542442E2,8.629868E2,5.162552E2,2.371125E2,2.7118652E2,5.882093E1,1.07206375E2,2.8218046E1,5.505209E2,3.1246594E2,2.4599628E2,2.702589E2,5.5451725E1,2.1573479E2,7.1875563E0,2.103049E1,2.4073106E2,3.0978983E2,8.012041E1,2.3234552E2,1.314474E2,1.1454888E2,2.1443077E1,2.4881584E2,4.8910437E0,5.056068E1,5.5003433E0,1.687213E0,2.3234613E2,8.384924E0,5.361607E0,3.0442822E2,1.573382E2,7.5007324E1],"tree_param":{"num_deleted":"0","num_feature":"7","num_nodes":"39","size_leaf_vector":"1"}},{"base_weights":[-6.0895465E-2,-6.4809954E-1,2.5010604E-1,-3.2404256E-1,-1.023525E0,-2.726128E-2,9.120758E-1,1.8268481E-1,-3.141833E-1,-9.2939496E-1,-1.1123896E0,1.3745879E-1,-1.1686813E0,-3.6626074E-1,1.0410519E0,-7.549415E-1,3.1827584E-1,-2.3495933E-1,-9.941022E-1,-3.8577098E-1,-3.1489742E-1,-3.3063465E-1,3.0243307E-1,-3.1424618E-1,-5.207884E-1,3.2482854E-1,8.2941586E-1,2.361194E-1,-3.065324E-1,1.143585E-1,-3.404949E-1,-2.642848E-1,2.4972926E-1,-3.0240187E-1,-1.4286286E-1,3.54861E-2,2.714147E-1,-2.702463E-1,3.0634028E-1],"categories":[],"categories_nodes":[],"categories_segments":[],"categories_sizes":[],"default_left":[0,0,0,0,0,0,0,0,0,0,0,0,0,0,0,0,0,0,0,0,0,0,0,0,0,0,0,0,0,0,0,0,0,0,0,0,0,0,0],"id":6,"left_children":[1,3,5,7,9,11,13,15,-1,17,19,21,23,-1,25,27,29,31,33,-1,-1,-1,35,-1,-1,-1,37,-1,-1,-1,-1,-1,-1,-1,-1,-1,-1,-1,-1],"loss_changes":[3.1744348E2,7.2887665E1,2.0870236E2,1.1910846E2,1.2945557E0,1.5093135E2,9.360083E1,2.4605637E1,0E0,6.1136475E0,1.5348816E-1,1.4382402E2,5.1416626E0,0E0,1.9004211E0,1.0889023E1,1.5807135E1,9.938135E0,4.4818115E-1,0E0,0E0,0E0,6.866052E1,0E0,0E0,0E0,1.9651272E1,0E0,0E0,0E0,0E0,0E0,0E0,0E0,0E0,0E0,0E0,0E0,0E0],"parents":[2147483647,0,0,1,1,2,2,3,3,4,4,5,5,6,6,7,7,9,9,10,10,11,11,12,12,14,14,15,15,16,16,17,17,18,18,22,22,26,26],"right_children":[2,4,6,8,10,12,14,16,-1,18,20,22,24,-1,26,28,30,32,34,-1,-1,-1,36,-1,-1,-1,38,-1,-1,-1,-1,-1,-1,-1,-1,-1,-1,-1,-1],"split_conditions":[3.2304E4,3.246369E4,4.281747E5,1E0,9E1,4.2925744E5,4.1669716E5,9E1,-3.141833E-1,4.2797E4,5.984144E4,3.135872E4,1E0,-3.6626074E-1,5.1616484E5,2.1583E2,1E0,1E0,1.3824744E6,-3.8577098E-1,-3.1489742E-1,-3.3063465E-1,1E0,-3.1424618E-1,-5.207884E-1,3.2482854E-1,1E0,2.361194E-1,-3.065324E-1,1.143585E-1,-3.404949E-1,-2.642848E-1,2.4972926E-1,-3.0240187E-1,-1.4286286E-1,3.54861E-2,2.714147E-1,-2.702463E-1,3.0634028E-1],"split_indices":[1,0,0,5,1,1,1,1,0,2,0,0,3,0,2,0,4,3,0,0,0,0,6,0,0,0,3,0,0,0,0,0,0,0,0,0,0,0,0],"split_type":[0,0,0,0,0,0,0,0,0,0,0,0,0,0,0,0,0,0,0,0,0,0,0,0,0,0,0,0,0,0,0,0,0,0,0,0,0,0,0],"sum_hessian":[1.7363729E3,6.008396E2,1.1355333E3,3.23482E2,2.7735764E2,8.009089E2,3.346244E2,1.9065141E2,1.3283058E2,1.4025291E2,1.3710472E2,7.006732E2,1.0023566E2,1.8597748E1,3.1602664E2,2.3509935E1,1.6714148E2,1.234952E1,1.279034E2,3.122864E1,1.05876076E2,8.163187E1,6.190414E2,8.493632E1,1.529934E1,2.6055878E2,5.546787E1,3.180492E0,2.0329443E1,1.6091243E2,6.229039E0,7.8022366E0,4.547283E0,1.2363771E2,4.2656875E0,4.7500607E2,1.4403528E2,5.164067E0,5.0303802E1],"tree_param":{"num_deleted":"0","num_feature":"7","num_nodes":"39","size_leaf_vector":"1"}},{"base_weights":[-5.801151E-2,-4.0767464E-1,3.619502E-1,-1.6919358E-1,-1.0772668E0,-1.1492236E0,5.8570045E-1,8.790458E-2,-3.1018206E-1,-9.6079946E-1,-4.2308998E-1,-3.0653945E-1,-1.335445E0,3.6101505E-1,9.960576E-1,-2.1013664E-1,4.497485E-1,-7.618481E-1,-1.0091448E0,-4.4436482E-1,-2.8722164E-1,5.422312E-1,-1.1345296E0,-3.2882264E-1,3.130771E-1,3.873203E-2,-3.1462684E-1,-3.5598552E-1,1.7080301E-1,1.0921431E-1,-2.965558E-1,-3.072216E-1,-1.577432E-1,1.2215789E-1,2.7805504E-1,-3.033254E-1,-4.5990753E-1],"categories":[],"categories_nodes":[],"categories_segments":[],"categories_sizes":[],"default_left":[0,0,0,0,0,0,0,0,0,0,0,0,0,0,0,0,0,0,0,0,0,0,0,0,0,0,0,0,0,0,0,0,0,0,0,0,0],"id":7,"left_children":[1,3,5,7,9,11,13,15,-1,17,-1,-1,19,21,23,25,27,29,31,-1,-1,33,35,-1,-1,-1,-1,-1,-1,-1,-1,-1,-1,-1,-1,-1,-1],"loss_changes":[2.1855792E2,1.2949391E2,2.2933969E2,1.3348381E2,6.909958E0,7.13089E-1,5.4013474E1,5.0070713E1,0E0,7.798462E-1,0E0,0E0,3.6258698E-1,1.04316956E2,2.1836487E1,7.262209E1,4.169855E1,9.434408E0,3.7387085E-1,0E0,0E0,1.7383522E1,5.0017166E-1,0E0,0E0,0E0,0E0,0E0,0E0,0E0,0E0,0E0,0E0,0E0,0E0,0E0,0E0],"parents":[2147483647,0,0,1,1,2,2,3,3,4,4,5,5,6,6,7,7,9,9,12,12,13,13,14,14,15,15,16,16,17,17,18,18,21,21,22,22],"right_children":[2,4,6,8,10,12,14,16,-1,18,-1,-1,20,22,24,26,28,30,32,-1,-1,34,36,-1,-1,-1,-1,-1,-1,-1,-1,-1,-1,-1,-1,-1,-1],"split_conditions":[1.1361457E5,1.1520915E5,1.133608E5,1E0,5.4632E4,6.496231E4,5.580505E5,3.2304E4,-3.1018206E-1,3.6275E4,-4.2308998E-1,-3.0653945E-1,6.55677E5,5.610908E5,5.0453272E5,3.246369E4,3.135872E4,9E1,1.3824744E6,-4.4436482E-1,-2.8722164E-1,1E0,1E0,-3.2882264E-1,3.130771E-1,3.873203E-2,-3.1462684E-1,-3.5598552E-1,1.7080301E-1,1.0921431E-1,-2.965558E-1,-3.072216E-1,-1.577432E-1,1.2215789E-1,2.7805504E-1,-3.033254E-1,-4.5990753E-1],"split_indices":[1,0,0,5,1,0,0,1,0,2,0,0,1,1,1,0,0,1,0,0,0,6,3,0,0,0,0,0,0,0,0,0,0,0,0,0,0],"split_type":[0,0,0,0,0,0,0,0,0,0,0,0,0,0,0,0,0,0,0,0,0,0,0,0,0,0,0,0,0,0,0,0,0,0,0,0,0],"sum_hessian":[1.4863518E3,8.110746E2,6.752772E2,5.9899133E2,2.1208325E2,8.655594E1,5.887213E2,4.6241028E2,1.3658104E2,1.6001001E2,5.2073246E1,5.5242344E1,3.1313597E1,3.8163956E2,2.0708173E2,2.537897E2,2.0862057E2,3.4557407E1,1.254526E2,2.0493296E1,1.0820302E1,3.4096237E2,4.0677208E1,4.1102724E0,2.0297145E2,1.8129659E2,7.2493126E1,1.36010475E1,1.9501953E2,5.689767E0,2.886764E1,1.2060899E2,4.843605E0,2.5388348E2,8.707887E1,3.3757236E1,6.9199705E0],"tree_param":{"num_deleted":"0","num_feature":"7","num_nodes":"37","size_leaf_vector":"1"}},{"base_weights":[-5.807651E-2,-1.8730022E-1,8.297137E-1,-3.18028E-1,5.445321E-1,-9.1084677E-1,3.1059745E-1,-1.1009803E0,-5.0628083E-3,9.421657E-1,-1.271859E0,-6.200703E-1,-3.3000702E-1,-1.1618594E0,-3.0687904E-1,-7.342679E-1,1.02498576E-1,9.036388E-2,2.8363606E-1,-2.875038E-1,-4.2639664E-1,1.0189582E-1,-2.6915476E-1,-3.6694095E-1,-3.0340162E-1,3.3901286E-1,-2.5919846E-1,4.2545605E-3,1.0676067E-1],"categories":[],"categories_nodes":[],"categories_segments":[],"categories_sizes":[],"default_left":[0,0,0,0,0,0,0,0,0,0,0,0,0,0,0,0,0,0,0,0,0,0,0,0,0,0,0,0,0],"id":8,"left_children":[1,3,5,7,9,11,-1,13,15,17,19,21,-1,23,-1,25,27,-1,-1,-1,-1,-1,-1,-1,-1,-1,-1,-1,-1],"loss_changes":[1.462101E2,1.0657389E2,5.890029E1,2.3136548E2,1.2320535E2,2.88332E-1,0E0,9.274292E-2,5.3064484E1,8.468628E-3,7.9437256E-2,2.7635663E0,0E0,9.22699E-2,0E0,2.2009003E1,1.3188829E1,0E0,0E0,0E0,0E0,0E0,0E0,0E0,0E0,0E0,0E0,0E0,0E0],"parents":[2147483647,0,0,1,1,2,2,3,3,4,4,5,5,7,7,8,8,9,9,10,10,11,11,13,13,15,15,16,16],"right_children":[2,4,6,8,10,12,-1,14,16,18,20,22,-1,24,-1,26,28,-1,-1,-1,-1,-1,-1,-1,-1,-1,-1,-1,-1],"split_conditions":[6.3946825E5,1E0,6.178827E5,1E0,1.33764E3,9E1,3.1059745E-1,1E0,3.91E2,3.15E2,1.495E3,1.3005429E6,-3.3000702E-1,4.5229475E5,-3.0687904E-1,4.5938E2,2.096948E5,9.036388E-2,2.8363606E-1,-2.875038E-1,-4.2639664E-1,1.0189582E-1,-2.6915476E-1,-3.6694095E-1,-3.0340162E-1,3.3901286E-1,-2.5919846E-1,4.2545605E-3,1.0676067E-1],"split_indices":[0,6,1,3,2,1,0,5,1,1,1,2,0,1,0,0,1,0,0,0,0,0,0,0,0,0,0,0,0],"split_type":[0,0,0,0,0,0,0,0,0,0,0,0,0,0,0,0,0,0,0,0,0,0,0,0,0,0,0,0,0],"sum_hessian":[1.2721012E3,1.1111543E3,1.6094681E2,9.4322986E2,1.6792445E2,1.6641495E1,1.4430531E2,2.686426E2,6.745873E2,1.3816048E2,2.9763973E1,8.245447E0,8.396049E0,1.4312143E2,1.2552117E2,8.596525E1,5.88622E2,1.1777403E0,1.3698274E2,1.2001538E1,1.7762434E1,1.7968228E0,6.448624E0,9.664944E1,4.6472004E1,5.0910215E0,8.087422E1,4.3726245E2,1.5135957E2],"tree_param":{"num_deleted":"0","num_feature":"7","num_nodes":"29","size_leaf_vector":"1"}},{"base_weights":[-5.2111816E-2,-1.5865947E-1,7.987519E-1,-6.8042465E-2,-3.0362996E-1,-8.564661E-1,1.0065442E0,2.4298309E-1,-2.6394778E-1,-5.517738E-1,-3.2044724E-1,3.032837E-1,8.4044755E-2,-3.954138E-2,8.277554E-1,-3.3654207E-1,-6.1710205E-2,7.735829E-2,-2.5701818E-1,-3.476597E-1,3.4115653E-2,2.5977522E-1,-3.1051975E-1,-2.5850528E-1,1.603819E-2],"categories":[],"categories_nodes":[],"categories_segments":[],"categories_sizes":[],"default_left":[0,0,0,0,0,0,0,0,0,0,0,0,0,0,0,0,0,0,0,0,0,0,0,0,0],"id":9,"left_children":[1,3,5,7,-1,9,11,13,15,17,-1,-1,-1,19,21,-1,23,-1,-1,-1,-1,-1,-1,-1,-1],"loss_changes":[1.0090784E2,7.640025E1,4.346962E1,5.45948E1,0E0,3.366785E-1,7.014465E-2,5.725857E1,9.52768E1,2.1848469E0,0E0,0E0,0E0,4.0359463E1,8.920731E0,0E0,4.1118065E1,0E0,0E0,0E0,0E0,0E0,0E0,0E0,0E0],"parents":[2147483647,0,0,1,1,2,2,3,3,5,5,6,6,7,7,8,8,9,9,13,13,14,14,16,16],"right_children":[2,4,6,8,-1,10,12,14,16,18,-1,-1,-1,20,22,-1,24,-1,-1,-1,-1,-1,-1,-1,-1],"split_conditions":[6.3946825E5,1E0,6.178827E5,4.683805E4,-3.0362996E-1,9E1,1.270976E7,1E0,1E0,1.3005429E6,-3.2044724E-1,3.032837E-1,8.4044755E-2,1E0,1.33764E3,-3.3654207E-1,9E1,7.735829E-2,-2.5701818E-1,-3.476597E-1,3.4115653E-2,2.5977522E-1,-3.1051975E-1,-2.5850528E-1,1.603819E-2],"split_indices":[0,5,1,2,0,1,2,6,3,2,0,0,0,3,2,0,1,0,0,0,0,0,0,0,0],"split_type":[0,0,0,0,0,0,0,0,0,0,0,0,0,0,0,0,0,0,0,0,0,0,0,0,0],"sum_hessian":[1.1106681E3,9.877879E2,1.2288019E2,8.9394946E2,9.383848E1,1.3357354E1,1.09522835E2,3.453772E2,5.4857227E2,6.9543285E0,6.4030256E0,1.0847385E2,1.0489876E0,2.3349821E2,1.1187898E2,1.037852E2,4.4478705E2,1.9449681E0,5.0093603E0,2.7330507E1,2.0616771E2,1.1015745E2,1.7215419E0,5.516065E1,3.896264E2],"tree_param":{"num_deleted":"0","num_feature":"7","num_nodes":"25","size_leaf_vector":"1"}},{"base_weights":[-4.650464E-2,2.7136218E-2,-3.0077922E-1,-5.331935E-2,8.082522E-1,1.9860516E-1,-2.1052265E-1,-7.572836E-1,3.0008098E-1,-2.9185804E-2,7.4514085E-1,-3.2858855E-1,-4.4289965E-2,-3.959216E-1,-3.1107634E-1,-3.2998466E-1,2.5670992E-2,2.3495018E-1,-2.7733305E-1,-2.298405E-1,1.3918891E-2,1.3389537E-1,-2.3737375E-1],"categories":[],"categories_nodes":[],"categories_segments":[],"categories_sizes":[],"default_left":[0,0,0,0,0,0,0,0,0,0,0,0,0,0,0,0,0,0,0,0,0,0,0],"id":10,"left_children":[1,3,-1,5,7,9,11,13,-1,15,17,-1,19,21,-1,-1,-1,-1,-1,-1,-1,-1,-1],"loss_changes":[6.998451E1,5.8081997E1,0E0,3.3238144E1,2.6700958E1,4.0183163E1,7.593611E1,5.997553E-1,0E0,2.8190338E1,6.7514305E0,0E0,2.8573929E1,2.343995E0,0E0,0E0,0E0,0E0,0E0,0E0,0E0,0E0,0E0],"parents":[2147483647,0,0,1,1,3,3,4,4,5,5,6,6,7,7,9,9,10,10,12,12,13,13],"right_children":[2,4,-1,6,8,10,12,14,-1,16,18,-1,20,22,-1,-1,-1,-1,-1,-1,-1,-1,-1],"split_conditions":[1E0,7.574228E5,-3.0077922E-1,4.683805E4,6.178827E5,1E0,1E0,9E1,3.0008098E-1,1E0,1.33764E3,-3.2858855E-1,3.15E2,1.3005429E6,-3.1107634E-1,-3.2998466E-1,2.5670992E-2,2.3495018E-1,-2.7733305E-1,-2.298405E-1,1.3918891E-2,1.3389537E-1,-2.3737375E-1],"split_indices":[5,0,0,2,1,6,3,1,0,3,2,0,1,2,0,0,0,0,0,0,0,0,0],"split_type":[0,0,0,0,0,0,0,0,0,0,0,0,0,0,0,0,0,0,0,0,0,0,0],"sum_hessian":[9.926062E2,9.2252264E2,7.008359E1,8.3722003E2,8.530259E1,3.215923E2,5.1562775E2,8.99793E0,7.6304665E1,2.2765459E2,9.3937706E1,8.067052E1,4.3495724E2,4.979282E0,4.0186477E0,2.1205471E1,2.0644911E2,9.236493E1,1.5727818E0,4.77141E1,3.8724313E2,1.5493643E0,3.4299176E0],"tree_param":{"num_deleted":"0","num_feature":"7","num_nodes":"23","size_leaf_vector":"1"}},{"base_weights":[-4.0952303E-2,1.8668488E-2,-2.980596E-1,-4.8427187E-2,7.4629635E-1,-1.7884478E-2,-3.2668668E-1,-7.3626244E-1,9.613881E-1,-3.2724023E-1,9.020604E-2,-4.0549126E-1,-3.0035067E-1,2.946552E-1,4.637518E-1,8.886828E-2,-2.884082E-1,-4.306369E-1,3.887647E-2,6.0934484E-2,-2.2861014E-1,-3.6008416E-3,1.8227115E-1],"categories":[],"categories_nodes":[],"categories_segments":[],"categories_sizes":[],"default_left":[0,0,0,0,0,0,0,0,0,0,0,0,0,0,0,0,0,0,0,0,0,0,0],"id":11,"left_children":[1,3,-1,5,7,9,-1,11,13,15,17,19,-1,-1,21,-1,-1,-1,-1,-1,-1,-1,-1],"loss_changes":[5.1421074E1,4.1667847E1,0E0,2.482313E1,2.3685287E1,2.5456697E1,0E0,4.4360495E-1,2.0020676E-1,7.8214195E1,3.409166E1,1.4551251E0,0E0,0E0,3.108195E-1,0E0,0E0,0E0,0E0,0E0,0E0,0E0,0E0],"parents":[2147483647,0,0,1,1,3,3,4,4,5,5,7,7,8,8,9,9,10,10,11,11,14,14],"right_children":[2,4,-1,6,8,10,-1,12,14,16,18,20,-1,-1,22,-1,-1,-1,-1,-1,-1,-1,-1],"split_conditions":[1E0,6.6567644E5,-2.980596E-1,6.7750325E5,6.178827E5,2.1534E4,-3.2668668E-1,9E1,3.0702582E6,2.152213E4,2.152213E4,1.3005429E6,-3.0035067E-1,2.946552E-1,9.409579E5,8.886828E-2,-2.884082E-1,-4.306369E-1,3.887647E-2,6.0934484E-2,-2.2861014E-1,-3.6008416E-3,1.8227115E-1],"split_indices":[5,0,0,1,1,1,0,1,2,0,0,2,0,0,0,0,0,0,0,0,0,0,0],"split_type":[0,0,0,0,0,0,0,0,0,0,0,0,0,0,0,0,0,0,0,0,0,0,0],"sum_hessian":[9.040768E2,8.517474E2,5.2329414E1,7.80692E2,7.105536E1,7.594179E2,2.1274065E1,8.695695E0,6.235966E1,1.961132E2,5.6330475E2,4.992538E0,3.7031572E0,5.8923584E1,3.4360766E0,9.915588E1,9.695733E1,1.3282753E1,5.50022E2,2.003297E0,2.989241E0,1.010353E0,2.4257236E0],"tree_param":{"num_deleted":"0","num_feature":"7","num_nodes":"23","size_leaf_vector":"1"}},{"base_weights":[-3.7412137E-2,9.9014025E-3,-2.9523587E-1,-4.8699062E-2,6.4961946E-1,-1.677621E-2,-3.4030765E-1,-6.339256E-1,8.8179845E-1,-1.4413473E-1,1.8857369E-1,-2.967531E-1,-2.7139983E-1,9.3864524E-1,5.9557116E-1,3.7403934E-2,-3.1434935E-1,-3.86025E-1,9.541304E-2,2.2540702E-1,-1.9246528E-1,1.21299095E-1,2.9356405E-1,-2.4587493E-1,2.7763233E-1],"categories":[],"categories_nodes":[],"categories_segments":[],"categories_sizes":[],"default_left":[0,0,0,0,0,0,0,0,0,0,0,0,0,0,0,0,0,0,0,0,0,0,0,0,0],"id":12,"left_children":[1,3,-1,5,7,9,-1,11,13,15,17,19,-1,21,23,-1,-1,-1,-1,-1,-1,-1,-1,-1,-1],"loss_changes":[3.7727425E1,3.0133232E1,0E0,2.5506758E1,2.0660593E1,1.8765734E1,0E0,7.278466E-1,3.771782E-1,1.0769682E2,5.2880177E1,2.7764258E0,0E0,5.9077835E-1,6.4862986E0,0E0,0E0,0E0,0E0,0E0,0E0,0E0,0E0,0E0,0E0],"parents":[2147483647,0,0,1,1,3,3,4,4,5,5,7,7,8,8,9,9,10,10,11,11,13,13,14,14],"right_children":[2,4,-1,6,8,10,-1,12,14,16,18,20,-1,22,24,-1,-1,-1,-1,-1,-1,-1,-1,-1,-1],"split_conditions":[1E0,5.580505E5,-2.9523587E-1,5.610908E5,5.0453272E5,1.1361457E5,-3.4030765E-1,9E1,4.819303E5,1.133608E5,1.133608E5,7.341485E5,-2.7139983E-1,6.178827E5,1E0,3.7403934E-2,-3.1434935E-1,-3.86025E-1,9.541304E-2,2.2540702E-1,-1.9246528E-1,1.21299095E-1,2.9356405E-1,-2.4587493E-1,2.7763233E-1],"split_indices":[5,0,0,1,1,1,0,1,2,0,0,2,0,1,3,0,0,0,0,0,0,0,0,0,0],"split_type":[0,0,0,0,0,0,0,0,0,0,0,0,0,0,0,0,0,0,0,0,0,0,0,0,0],"sum_hessian":[8.4106146E2,8.0197095E2,3.909051E1,7.355187E2,6.645227E1,7.154956E2,2.0023058E1,9.914122E0,5.6538147E1,4.4179276E2,2.7370285E2,5.3488693E0,4.5652523E0,4.526819E1,1.1269959E1,3.4117E2,1.0062276E2,2.1360357E1,2.523425E2,1.0321714E0,4.316698E0,3.9192588E0,4.134893E1,1.8497779E0,9.420181E0],"tree_param":{"num_deleted":"0","num_feature":"7","num_nodes":"25","size_leaf_vector":"1"}},{"base_weights":[-3.5420425E-2,2.6835331E-3,-2.9208514E-1,-5.6276035E-2,5.053801E-1,-1.37472795E-2,-1.3536413E0,-7.8361404E-1,8.335913E-1,-6.690311E-2,4.205082E-1,-5.481946E-1,-3.1529275E-1,-7.065831E-2,-3.4758314E-1,2.7098793E-1,5.581261E-1,-3.2915252E-1,4.1733384E-3,2.109312E-1,-3.3678186E-1,1.6271868E-1,-2.2014907E-1,-2.3323534E-1,2.435759E-1],"categories":[],"categories_nodes":[],"categories_segments":[],"categories_sizes":[],"default_left":[0,0,0,0,0,0,0,0,0,0,0,0,0,0,0,0,0,0,0,0,0,0,0,0,0],"id":13,"left_children":[1,3,-1,5,7,9,11,13,15,17,19,-1,-1,21,-1,-1,23,-1,-1,-1,-1,-1,-1,-1,-1],"loss_changes":[2.7693937E1,2.2120272E1,0E0,3.683986E1,3.379802E1,1.4982158E1,1.1178741E0,4.306923E0,7.0412064E-1,4.81435E1,3.1658405E1,0E0,0E0,3.131358E0,0E0,0E0,5.8257074E0,0E0,0E0,0E0,0E0,0E0,0E0,0E0,0E0],"parents":[2147483647,0,0,1,1,3,3,4,4,5,5,6,6,7,7,8,8,9,9,10,10,13,13,16,16],"right_children":[2,4,-1,6,8,10,12,14,16,18,20,-1,-1,22,-1,-1,24,-1,-1,-1,-1,-1,-1,-1,-1],"split_conditions":[1E0,4.4800362E5,-2.9208514E-1,4.5229475E5,4.1669716E5,1E0,5.610908E5,9E1,4.819303E5,1E0,1.33764E3,-5.481946E-1,-3.1529275E-1,1.3005429E6,-3.4758314E-1,2.7098793E-1,1E0,-3.2915252E-1,4.1733384E-3,2.109312E-1,-3.3678186E-1,1.6271868E-1,-2.2014907E-1,-2.3323534E-1,2.435759E-1],"split_indices":[5,0,0,1,1,6,1,1,2,3,2,0,0,2,0,0,3,0,0,0,0,0,0,0,0],"split_type":[0,0,0,0,0,0,0,0,0,0,0,0,0,0,0,0,0,0,0,0,0,0,0,0,0],"sum_hessian":[7.7360406E2,7.443694E2,2.923471E1,6.670244E2,7.734497E1,6.468313E2,2.0193092E1,1.5415534E1,6.192944E1,5.770432E2,6.978808E1,5.9086323E0,1.4284461E1,5.7230687E0,9.692465E0,4.7604717E1,1.4324719E1,4.105617E1,5.3598706E2,5.9445908E1,1.034217E1,3.0685437E0,2.654525E0,1.9579217E0,1.2366798E1],"tree_param":{"num_deleted":"0","num_feature":"7","num_nodes":"25","size_leaf_vector":"1"}},{"base_weights":[-3.089667E-2,-6.040997E-4,-2.8838584E-1,-8.848773E-2,2.4740832E-1,9.5861666E-2,-1.3185643E0,-1.8786281E0,5.968008E-1,-1.4916579E-2,5.3458214E-1,-8.249608E-1,-2.4569669E0,-9.7262865E-1,-2.4652603E0,7.506297E-1,2.96454E-1,2.872306E-2,-3.2664004E-1,-3.5291323E-1,2.1530403E-1,-3.8220026E-2,-3.2500914E-1,-8.432256E-1,7.4824065E-2,-1.0927385E-1,-3.1921983E-1,-9.73658E-1,-3.5549593E-1,1.96132E-1,2.625988E-1,-2.558958E-1,1.2362326E-1],"categories":[],"categories_nodes":[],"categories_segments":[],"categories_sizes":[],"default_left":[0,0,0,0,0,0,0,0,0,0,0,0,0,0,0,0,0,0,0,0,0,0,0,0,0,0,0,0,0,0,0,0,0],"id":14,"left_children":[1,3,-1,5,7,9,11,13,15,17,19,21,23,25,27,29,31,-1,-1,-1,-1,-1,-1,-1,-1,-1,-1,-1,-1,-1,-1,-1,-1],"loss_changes":[2.0473454E1,1.5378185E1,0E0,1.18256836E2,1.3824487E2,2.2071507E1,3.6163742E1,1.1578278E1,7.1375656E0,4.3292557E1,2.952383E1,8.678825E0,1.9898972E1,2.79212E-1,1.1447723E1,6.922264E-1,7.7419686E0,0E0,0E0,0E0,0E0,0E0,0E0,0E0,0E0,0E0,0E0,0E0,0E0,0E0,0E0,0E0,0E0],"parents":[2147483647,0,0,1,1,3,3,4,4,5,5,6,6,7,7,8,8,9,9,10,10,11,11,12,12,13,13,14,14,15,15,16,16],"right_children":[2,4,-1,6,8,10,12,14,16,18,20,22,24,26,28,30,32,-1,-1,-1,-1,-1,-1,-1,-1,-1,-1,-1,-1,-1,-1,-1,-1],"split_conditions":[1E0,2.096948E5,-2.8838584E-1,2.0523016E5,2.086306E5,1.1361457E5,1.1011E5,1.0685022E5,5.305386E5,1.1520915E5,1.133608E5,9E1,2.0495138E5,4.325478E4,4.424603E5,8.18102E3,1E0,2.872306E-2,-3.2664004E-1,-3.5291323E-1,2.1530403E-1,-3.8220026E-2,-3.2500914E-1,-8.432256E-1,7.4824065E-2,-1.0927385E-1,-3.1921983E-1,-9.73658E-1,-3.5549593E-1,1.96132E-1,2.625988E-1,-2.558958E-1,1.2362326E-1],"split_indices":[5,1,0,0,0,1,1,0,2,0,0,1,1,0,1,2,3,0,0,0,0,0,0,0,0,0,0,0,0,0,0,0,0],"split_type":[0,0,0,0,0,0,0,0,0,0,0,0,0,0,0,0,0,0,0,0,0,0,0,0,0,0,0,0,0,0,0,0,0],"sum_hessian":[7.2544476E2,7.035389E2,2.190589E1,5.199403E2,1.8359854E2,4.5297574E2,6.696461E1,2.5296106E1,1.5830243E2,3.6242764E2,9.054808E1,4.7914066E1,1.9050537E1,1.098648E1,1.4309627E1,1.0369411E2,5.460833E1,3.293954E2,3.3032253E1,8.228839E0,8.2319244E1,1.3355045E1,3.455902E1,1.6814003E1,2.2365344E0,2.0866208E0,8.899859E0,7.9372325E0,6.3723936E0,6.187638E1,4.1817722E1,4.4081926E0,5.0200138E1],"tree_param":{"num_deleted":"0","num_feature":"7","num_nodes":"33","size_leaf_vector":"1"}},{"base_weights":[-2.8631482E-2,-2.8808844E-1,5.7835177E-2,7.3523216E-2,-8.32528E-1,-3.7054753E-1,1.0196961E-1,-6.8825144E-1,2.1534826E-1,-3.2649955E-1,-1.1754276E0,5.0721675E-1,1.344219E-2,1.877199E-1,-2.9152203E-1,4.996958E-1,-7.582406E-2,7.2108215E-1,-6.1745906E-1,-4.523267E-1,-2.9682437E-1,7.1525675E-1,-1.0110233E0,-3.410196E-1,1.1439851E-1,2.3844671E-1,-4.466678E-1,-5.730968E-1,1.1586406E-1,-1.6699156E-1,4.3010467E-1,-2.0700832E-1,1.4006259E-1,6.186877E-2,2.4221085E-1,-3.3390167E-1,-2.7126355E-2,1.970807E-2,2.2726363E-1],"categories":[],"categories_nodes":[],"categories_segments":[],"categories_sizes":[],"default_left":[0,0,0,0,0,0,0,0,0,0,0,0,0,0,0,0,0,0,0,0,0,0,0,0,0,0,0,0,0,0,0,0,0,0,0,0,0,0,0],"id":15,"left_children":[1,3,5,7,9,-1,11,13,15,17,19,21,23,-1,-1,25,27,29,31,-1,-1,33,35,-1,37,-1,-1,-1,-1,-1,-1,-1,-1,-1,-1,-1,-1,-1,-1],"loss_changes":[1.5109996E1,3.3202038E1,2.8969345E1,1.1175658E1,1.1287727E1,0E0,1.756083E1,6.6644044E0,7.2253046E0,9.148629E0,9.629898E-1,2.844469E1,4.6915718E1,0E0,0E0,2.7036758E1,3.7828133E1,6.8693805E0,2.123023E0,0E0,0E0,3.4802208E0,9.312906E-1,0E0,1.1581419E1,0E0,0E0,0E0,0E0,0E0,0E0,0E0,0E0,0E0,0E0,0E0,0E0,0E0,0E0],"parents":[2147483647,0,0,1,1,2,2,3,3,4,4,6,6,7,7,8,8,9,9,10,10,11,11,12,12,15,15,16,16,17,17,18,18,21,21,22,22,24,24],"right_children":[2,4,6,8,10,-1,12,14,16,18,20,22,24,-1,-1,26,28,30,32,-1,-1,34,36,-1,38,-1,-1,-1,-1,-1,-1,-1,-1,-1,-1,-1,-1,-1,-1],"split_conditions":[2.1534E4,2.152213E4,2.152213E4,9E1,9E1,-3.7054753E-1,5.524748E4,2.1583E2,9.959E3,4.2797E4,3.246369E4,5.645252E4,5.4632E4,1.877199E-1,-2.9152203E-1,1.000551E4,1.000551E4,1E0,1.2422268E6,-4.523267E-1,-2.9682437E-1,1E0,3.3509453E5,-3.410196E-1,6.3946825E5,2.3844671E-1,-4.466678E-1,-5.730968E-1,1.1586406E-1,-1.6699156E-1,4.3010467E-1,-2.0700832E-1,1.4006259E-1,6.186877E-2,2.4221085E-1,-3.3390167E-1,-2.7126355E-2,1.970807E-2,2.2726363E-1],"split_indices":[1,0,0,1,1,0,0,0,1,2,0,1,1,0,0,0,0,3,0,0,0,3,1,0,0,0,0,0,0,0,0,0,0,0,0,0,0,0,0],"split_type":[0,0,0,0,0,0,0,0,0,0,0,0,0,0,0,0,0,0,0,0,0,0,0,0,0,0,0,0,0,0,0,0,0,0,0,0,0,0,0],"sum_hessian":[6.717771E2,1.6733376E2,5.0444333E2,1.01069374E2,6.626437E1,1.5759371E1,4.8868396E2,1.5258685E1,8.581069E1,2.755407E1,3.8710308E1,8.67668E1,4.0191714E2,2.4935753E0,1.2765109E1,4.305181E1,4.2758877E1,5.668108E0,2.1885962E1,1.1341717E1,2.736859E1,7.677538E1,9.991415E0,3.1603659E1,3.703135E2,3.8010918E1,5.0408945E0,7.9719725E0,3.4786903E1,2.1077285E0,3.5603795E0,2.0853958E1,1.0320034E0,1.2260588E1,6.45148E1,8.806818E0,1.1845967E0,3.4526874E2,2.5044754E1],"tree_param":{"num_deleted":"0","num_feature":"7","num_nodes":"39","size_leaf_vector":"1"}},{"base_weights":[-3.036683E-2,-1.0157299E-2,-2.7915218E-1,-5.133458E-2,3.118141E-1,-3.1647158E-1,1.4298113E-2,6.042055E-1,-9.91482E-1,-7.0887012E-3,8.3346015E-1,4.078794E-1,7.5023E-1,-3.4171978E-1,-1.5302396E-2,2.1517454E-3,-4.1257566E-1,-9.81766E-3,2.7728418E-1,2.0171914E-1,-3.3034378E-1,-3.7218887E-2,2.3715246E-1],"categories":[],"categories_nodes":[],"categories_segments":[],"categories_sizes":[],"default_left":[0,0,0,0,0,0,0,0,0,0,0,0,0,0,0,0,0,0,0,0,0,0,0],"id":16,"left_children":[1,3,-1,5,7,-1,9,11,13,15,17,19,21,-1,-1,-1,-1,-1,-1,-1,-1,-1,-1],"loss_changes":[1.143347E1,8.185888E0,0E0,3.605832E1,2.7279892E1,0E0,9.021466E0,1.3512325E0,1.7751684E0,9.814579E0,1.0609512E0,1.1457204E1,1.2235031E0,0E0,0E0,0E0,0E0,0E0,0E0,0E0,0E0,0E0,0E0],"parents":[2147483647,0,0,1,1,3,3,4,4,6,6,7,7,8,8,9,9,10,10,11,11,12,12],"right_children":[2,4,-1,6,8,-1,10,12,14,16,18,20,22,-1,-1,-1,-1,-1,-1,-1,-1,-1,-1],"split_conditions":[1E0,1E0,-2.7915218E-1,1E0,1.33764E3,-3.1647158E-1,5.776147E5,1.02707E5,1.3824744E6,5.791786E5,5.984267E5,1.0492031E5,1.0871127E5,-3.4171978E-1,-1.5302396E-2,2.1517454E-3,-4.1257566E-1,-9.81766E-3,2.7728418E-1,2.0171914E-1,-3.3034378E-1,-3.7218887E-2,2.3715246E-1],"split_indices":[5,6,0,3,2,0,0,1,0,1,1,0,0,0,0,0,0,0,0,0,0,0,0],"split_type":[0,0,0,0,0,0,0,0,0,0,0,0,0,0,0,0,0,0,0,0,0,0,0],"sum_hessian":[6.280286E2,6.152271E2,1.2801507E1,5.4621204E2,6.90151E1,3.26038E1,5.136082E2,5.6806988E1,1.2208111E1,5.0150616E2,1.2102057E1,2.5848112E1,3.0958876E1,1.0369686E1,1.8384241E0,4.9731708E2,4.1890755E0,1.2091962E0,1.089286E1,2.2464685E1,3.3834279E0,1.271832E0,2.9687042E1],"tree_param":{"num_deleted":"0","num_feature":"7","num_nodes":"23","size_leaf_vector":"1"}},{"base_weights":[-2.542114E-2,-9.4345035E-3,-2.7261576E-1,-1.967209E-1,4.791663E-2,1.4472865E-1,-7.458509E-1,-3.5248268E-1,7.303924E-2,-4.9579543E-1,2.1902983E-1,-2.0196848E-1,-1.1360744E0,3.9109552E-1,-1.3686339E-2,1.7327225E-1,-2.7265283E-1,1.3443905E-1,1.1443392E-3,2.1955262E-1,-1.5449E-1,-3.8500533E-1,-2.6391807E-1,1.7480257E-1,-3.556172E-1,-3.5669634E-1,2.5728459E-2],"categories":[],"categories_nodes":[],"categories_segments":[],"categories_sizes":[],"default_left":[0,0,0,0,0,0,0,0,0,0,0,0,0,0,0,0,0,0,0,0,0,0,0,0,0,0,0],"id":17,"left_children":[1,3,-1,5,7,9,11,-1,13,15,17,19,21,23,25,-1,-1,-1,-1,-1,-1,-1,-1,-1,-1,-1,-1],"loss_changes":[8.497896E0,6.375685E0,0E0,2.619761E1,1.4050447E1,4.23165E0,1.1127459E1,0E0,1.231724E1,4.653161E0,3.8600545E0,7.266053E0,3.9123535E-2,2.9583708E1,4.1207085E1,0E0,0E0,0E0,0E0,0E0,0E0,0E0,0E0,0E0,0E0,0E0,0E0],"parents":[2147483647,0,0,1,1,3,3,4,4,5,5,6,6,8,8,9,9,10,10,11,11,12,12,13,13,14,14],"right_children":[2,4,-1,6,8,10,12,-1,14,16,18,20,22,24,26,-1,-1,-1,-1,-1,-1,-1,-1,-1,-1,-1,-1],"split_conditions":[1E0,2.183243E4,-2.7261576E-1,2.203894E4,2.152213E4,9E1,9E1,-3.5248268E-1,6.341699E4,2.1583E2,9.959E3,4.2797E4,5.827983E4,6.415307E4,6.213433E4,1.7327225E-1,-2.7265283E-1,1.3443905E-1,1.1443392E-3,2.1955262E-1,-1.5449E-1,-3.8500533E-1,-2.6391807E-1,1.7480257E-1,-3.556172E-1,-3.5669634E-1,2.5728459E-2],"split_indices":[5,1,0,0,0,1,1,0,0,0,1,2,0,1,1,0,0,0,0,0,0,0,0,0,0,0,0],"split_type":[0,0,0,0,0,0,0,0,0,0,0,0,0,0,0,0,0,0,0,0,0,0,0,0,0,0,0],"sum_hessian":[6.014E2,5.917016E2,9.69841E0,1.3814473E2,4.5355685E2,8.563393E1,5.251081E1,8.209027E0,4.4534784E2,8.311413E0,7.732251E1,2.25704E1,2.994041E1,9.4665016E1,3.5068283E2,2.1988983E0,6.112514E0,3.692887E1,4.039364E1,5.3301277E0,1.7240273E1,1.6471138E1,1.3469273E1,8.496963E1,9.695389E0,2.6503342E1,3.2417947E2],"tree_param":{"num_deleted":"0","num_feature":"7","num_nodes":"27","size_leaf_vector":"1"}},{"base_weights":[-2.7074544E-2,-6.128086E-2,3.1851295E-1,-2.7678393E-2,-3.969289E-1,-7.1573585E-1,6.469227E-1,-2.524679E-1,2.6688384E-2,2.5752056E-1,-3.802726E-1,2.9291138E-1,5.0872076E-1,2.5205928E-1,-8.8856053E-1,-4.3438506E-1,6.914692E-2,2.3635802E-1,-1.8700726E-1,-3.0962408E-1,6.091718E-1,-1.3007952E-1,1.2990871E-1,-1.15228705E-1,-3.7449422E-1,2.3688291E-1,7.200657E-3,1.112307E-1,2.2096993E-1],"categories":[],"categories_nodes":[],"categories_segments":[],"categories_sizes":[],"default_left":[0,0,0,0,0,0,0,0,0,0,0,0,0,0,0,0,0,0,0,0,0,0,0,0,0,0,0,0,0],"id":18,"left_children":[1,3,5,7,-1,9,11,13,15,17,-1,-1,19,21,23,-1,25,-1,-1,-1,27,-1,-1,-1,-1,-1,-1,-1,-1],"loss_changes":[6.7708445E0,2.2033371E1,1.7989088E1,6.215496E0,0E0,7.260419E0,1.3103466E0,3.200776E1,2.5770565E1,3.0617714E0,0E0,0E0,5.2793283E0,7.137624E0,7.5108757E0,0E0,1.2974136E1,0E0,0E0,0E0,6.0273075E-1,0E0,0E0,0E0,0E0,0E0,0E0,0E0,0E0],"parents":[2147483647,0,0,1,1,2,2,3,3,5,5,6,6,7,7,8,8,9,9,12,12,13,13,14,14,16,16,20,20],"right_children":[2,4,6,8,-1,10,12,14,16,18,-1,-1,20,22,24,-1,26,-1,-1,-1,28,-1,-1,-1,-1,-1,-1,-1,-1],"split_conditions":[4.092708E5,4.1669716E5,4.0416506E5,1.6113E4,-3.969289E-1,9E1,4.6144253E5,1.43557E4,1.589862E4,1.3005429E6,-3.802726E-1,2.9291138E-1,4.5778912E5,1E0,9E1,-4.3438506E-1,2.345185E4,2.3635802E-1,-1.8700726E-1,-3.0962408E-1,1E0,-1.3007952E-1,1.2990871E-1,-1.15228705E-1,-3.7449422E-1,2.3688291E-1,7.200657E-3,1.112307E-1,2.2096993E-1],"split_indices":[0,1,1,1,0,1,1,0,0,2,0,0,0,3,1,0,0,0,0,0,3,0,0,0,0,0,0,0,0],"split_type":[0,0,0,0,0,0,0,0,0,0,0,0,0,0,0,0,0,0,0,0,0,0,0,0,0,0,0,0,0],"sum_hessian":[5.701165E2,5.195173E2,5.0599243E1,5.070367E2,1.2480583E1,1.191051E1,3.8688736E1,9.8037735E1,4.08999E2,4.5026727E0,7.407838E0,9.6411495E0,2.9047585E1,5.5009666E1,4.3028072E1,1.0520097E1,3.9847888E2,2.8764691E0,1.6262035E0,1.210192E0,2.7837393E1,1.1195648E1,4.381402E1,1.877228E1,2.425579E1,2.2524282E1,3.759546E2,1.105666E1,1.6780733E1],"tree_param":{"num_deleted":"0","num_feature":"7","num_nodes":"29","size_leaf_vector":"1"}},{"base_weights":[-2.4006668E-2,-1.2845749E-2,-2.5875515E-1,6.0588744E-2,-1.4699426E-1,4.499115E-3,4.2987588E-1,-9.5220125E-1,-8.164476E-2,5.5851936E-2,-1.1971574E0,-1.2569934E0,6.9322747E-1,-3.0579248E-1,-2.9269895E-2,-3.3966646E-1,-1.6648414E-2,3.3942382E-3,1.2512872E-1,1.7046873E-1,-5.043598E-1,-1.868034E-2,-4.3987682E-1,2.7066508E-1,1.6535147E-1,-1.5912431E-1,8.5850054E-4,6.159905E-2,-3.384497E-2],"categories":[],"categories_nodes":[],"categories_segments":[],"categories_sizes":[],"default_left":[0,0,0,0,0,0,0,0,0,0,0,0,0,0,0,0,0,0,0,0,0,0,0,0,0,0,0,0,0],"id":19,"left_children":[1,3,-1,5,7,9,11,13,15,17,19,21,23,-1,-1,25,27,-1,-1,-1,-1,-1,-1,-1,-1,-1,-1,-1,-1],"loss_changes":[5.1283183E0,5.3577514E0,0E0,7.280731E0,1.00448475E1,1.8964796E1,2.1462063E1,7.2337055E-1,2.9966793E0,4.735903E0,1.17185135E1,1.5623922E0,7.120991E-1,0E0,0E0,2.351747E0,3.0983229E0,0E0,0E0,0E0,0E0,0E0,0E0,0E0,0E0,0E0,0E0,0E0,0E0],"parents":[2147483647,0,0,1,1,3,3,4,4,5,5,6,6,7,7,8,8,9,9,10,10,11,11,12,12,15,15,16,16],"right_children":[2,4,-1,6,8,10,12,14,16,18,20,22,24,-1,-1,26,28,-1,-1,-1,-1,-1,-1,-1,-1,-1,-1,-1,-1],"split_conditions":[1E0,4.9960256E5,-2.5875515E-1,3.1778712E5,1E0,3.198871E5,3.1315338E5,1.1651879E6,7.341485E5,1E0,9E1,7.842717E4,3.9185544E5,-3.0579248E-1,-2.9269895E-2,1.45879E5,6.341699E4,3.3942382E-3,1.2512872E-1,1.7046873E-1,-5.043598E-1,-1.868034E-2,-4.3987682E-1,2.7066508E-1,1.6535147E-1,-1.5912431E-1,8.5850054E-4,6.159905E-2,-3.384497E-2],"split_indices":[5,2,0,1,3,0,0,0,2,6,1,0,1,0,0,1,0,0,0,0,0,0,0,0,0,0,0,0,0],"split_type":[0,0,0,0,0,0,0,0,0,0,0,0,0,0,0,0,0,0,0,0,0,0,0,0,0,0,0,0,0],"sum_hessian":[5.4816626E2,5.419678E2,6.198494E0,3.505958E2,1.9137195E2,3.052454E2,4.5350388E1,1.3346878E1,1.7802507E2,2.9364978E2,1.159561E1,5.6144686E0,3.973592E1,1.2196511E1,1.1503673E0,3.497114E1,1.4305394E2,2.6233746E2,3.1312319E1,2.4577675E0,9.137843E0,1.030229E0,4.58424E0,1.3914332E1,2.5821587E1,2.2109962E1,1.2861177E1,4.2898666E1,1.00155266E2],"tree_param":{"num_deleted":"0","num_feature":"7","num_nodes":"29","size_leaf_vector":"1"}},{"base_weights":[-1.983525E-2,-1.8015362E-1,3.1320445E-2,4.7187567E-2,-6.6009027E-1,-3.0386192E-1,5.3315084E-2,-4.0346667E-1,1.4235991E-1,-1.527085E-1,-1.0699176E0,2.7084732E-1,-3.4764554E-2,-2.8486603E-1,1.798396E-1,7.921297E-2,7.441726E-1,1.4188644E-1,-2.520483E-1,-1.1485523E0,-3.1725977E-2,4.9144384E-1,-1.4175504E0,-1.3588996E0,1.016321E-1,1.4003912E-1,-2.3406778E-1,7.851558E-3,2.2814085E-1,2.9657114E-1,6.77982E-2,-3.8039155E-2,2.2077908E-1,-3.7127936E-1,-1.750826E-1,8.749316E-2,2.3684533E-1,-5.4320836E-1,-2.4700339E-1,-5.42603E-1,-3.140968E-1,1.2696654E-1,3.044779E-3],"categories":[],"categories_nodes":[],"categories_segments":[],"categories_sizes":[],"default_left":[0,0,0,0,0,0,0,0,0,0,0,0,0,0,0,0,0,0,0,0,0,0,0,0,0,0,0,0,0,0,0,0,0,0,0,0,0,0,0,0,0,0,0],"id":20,"left_children":[1,3,5,7,9,-1,11,13,15,17,19,21,23,-1,25,27,29,31,-1,33,-1,35,37,39,41,-1,-1,-1,-1,-1,-1,-1,-1,-1,-1,-1,-1,-1,-1,-1,-1,-1,-1],"loss_changes":[4.386001E0,1.4144457E1,9.372998E0,3.862032E0,8.495998E0,0E0,7.641702E0,5.180687E0,2.752421E0,4.1238E0,1.6124706E0,4.349867E1,5.1507008E1,0E0,2.690949E0,2.4398572E0,6.5119123E-1,2.439191E0,0E0,3.3636665E-1,0E0,5.8664284E0,1.6715374E0,1.8424492E0,7.6093273E0,0E0,0E0,0E0,0E0,0E0,0E0,0E0,0E0,0E0,0E0,0E0,0E0,0E0,0E0,0E0,0E0,0E0,0E0],"parents":[2147483647,0,0,1,1,2,2,3,3,4,4,6,6,7,7,8,8,9,9,10,10,11,11,12,12,14,14,15,15,16,16,17,17,19,19,21,21,22,22,23,23,24,24],"right_children":[2,4,6,8,10,-1,12,14,16,18,20,22,24,-1,26,28,30,32,-1,34,-1,36,38,40,42,-1,-1,-1,-1,-1,-1,-1,-1,-1,-1,-1,-1,-1,-1,-1,-1,-1,-1],"split_conditions":[2.504078E4,2.436779E4,2.505937E4,1E0,9E1,-3.0386192E-1,8.45204E4,1E0,2.1534E4,1.3005429E6,2.4126E4,8.477155E4,8.477155E4,-2.8486603E-1,1.33764E3,3.364384E6,2.299073E4,3.3046128E5,-2.520483E-1,1.3077709E5,-3.1725977E-2,5.645252E4,1.1361457E5,1.0871127E5,1.3077709E5,1.4003912E-1,-2.3406778E-1,7.851558E-3,2.2814085E-1,2.9657114E-1,6.77982E-2,-3.8039155E-2,2.2077908E-1,-3.7127936E-1,-1.750826E-1,8.749316E-2,2.3684533E-1,-5.4320836E-1,-2.4700339E-1,-5.42603E-1,-3.140968E-1,1.2696654E-1,3.044779E-3],"split_indices":[1,0,0,3,1,0,0,6,1,2,1,1,1,0,2,2,1,0,0,0,0,1,1,0,0,0,0,0,0,0,0,0,0,0,0,0,0,0,0,0,0,0,0],"split_type":[0,0,0,0,0,0,0,0,0,0,0,0,0,0,0,0,0,0,0,0,0,0,0,0,0,0,0,0,0,0,0,0,0,0,0,0,0,0,0,0,0,0,0],"sum_hessian":[5.3311206E2,1.2835011E2,4.0476196E2,8.770623E1,4.0643887E1,7.420562E0,3.973414E2,1.4727963E1,7.297827E1,1.8773811E1,2.1870073E1,1.1391874E2,2.8342267E2,7.2823777E0,7.4455857E0,6.707215E1,5.906116E0,1.3697576E1,5.076235E0,2.004409E1,1.8259845E0,1.0138171E2,1.2537032E1,2.5631351E1,2.5779132E2,6.1278086E0,1.3177768E0,6.3190685E1,3.8814695E0,3.3964217E0,2.5096946E0,9.973262E0,3.724314E0,1.6286396E1,3.7576938E0,6.187833E1,3.9503376E1,6.312949E0,6.2240834E0,8.530951E0,1.71004E1,5.628974E1,2.0150157E2],"tree_param":{"num_deleted":"0","num_feature":"7","num_nodes":"43","size_leaf_vector":"1"}},{"base_weights":[-2.1901978E-2,-3.1981338E-2,7.3282987E-1,-2.6015046E-1,2.9119907E-4,3.983248E-2,2.4780485E-1,-3.0450234E-1,1.5081805E-1,2.5172293E-1,-6.319865E-3,4.201004E-1,-1.0009788E0,-3.1615087E-1,1.3752022E-2,1.4534757E-1,-1.6737139E-1,-3.3230343E-1,-5.7472397E-2,-1.866073E-1,3.447599E-2,2.2844873E-2,-3.065687E-2],"categories":[],"categories_nodes":[],"categories_segments":[],"categories_sizes":[],"default_left":[0,0,0,0,0,0,0,0,0,0,0,0,0,0,0,0,0,0,0,0,0,0,0],"id":21,"left_children":[1,3,5,7,9,-1,-1,-1,11,-1,13,15,17,19,21,-1,-1,-1,-1,-1,-1,-1,-1],"loss_changes":[3.8939724E0,3.704339E0,2.676084E-1,1.9491264E1,2.4547246E0,0E0,0E0,0E0,1.3209188E1,0E0,2.7360122E0,2.4192562E0,4.8810196E-1,3.600743E0,2.999134E0,0E0,0E0,0E0,0E0,0E0,0E0,0E0,0E0],"parents":[2147483647,0,0,1,1,2,2,3,3,4,4,8,8,10,10,11,11,12,12,13,13,14,14],"right_children":[2,4,6,8,10,-1,-1,-1,12,-1,14,16,18,20,22,-1,-1,-1,-1,-1,-1,-1,-1],"split_conditions":[1.9264446E6,1E0,2.0939515E6,1E0,2.1583E2,3.983248E-2,2.4780485E-1,-3.0450234E-1,1.33764E3,2.5172293E-1,1.01E3,1.3030295E6,1.1651879E6,9.426184E4,1.7302023E5,1.4534757E-1,-1.6737139E-1,-3.3230343E-1,-5.7472397E-2,-1.866073E-1,3.447599E-2,2.2844873E-2,-3.065687E-2],"split_indices":[0,3,1,6,0,0,0,0,2,0,1,0,0,0,0,0,0,0,0,0,0,0,0],"split_type":[0,0,0,0,0,0,0,0,0,0,0,0,0,0,0,0,0,0,0,0,0,0,0],"sum_hessian":[5.0779797E2,5.0205078E2,5.747207E0,6.1336483E1,4.407143E2,1.0984945E0,4.6487126E0,2.1103775E1,4.0232708E1,2.4617155E0,4.3825256E2,3.3123844E1,7.108866E0,2.5766605E1,4.1248596E2,3.155114E1,1.5727037E0,5.955301E0,1.1535652E0,1.4812896E1,1.0953709E1,2.683879E2,1.4409805E2],"tree_param":{"num_deleted":"0","num_feature":"7","num_nodes":"23","size_leaf_vector":"1"}},{"base_weights":[-1.775254E-2,-6.778704E-2,1.3088796E-1,6.540345E-2,-1.0961794E0,-1.5846068E0,4.2311913E-1,-3.6333453E-2,3.6017722E-1,7.624009E-2,-1.4150875E0,-7.900478E-1,-1.8588744E0,7.052126E-1,3.5584906E-1,4.5523595E-2,-9.071842E-1,-3.516963E-1,4.9691355E-1,5.3723115E-1,-3.342928E-1,-1.5321386E0,8.296366E-2,-1.1664668E-2,-2.7887586E-1,-6.1580706E-1,-2.9450923E-1,3.3098862E-1,-5.517522E-1,-6.679697E-1,4.5034534E-1,-4.0996347E-2,5.5523776E-2,1.4667282E-2,-3.4536043E-1,1.7046715E-1,-7.749871E-2,2.0603082E-1,1.9729171E-2,-2.0099832E-1,1.8481002E-3,-3.0387402E-1,-5.794643E-1,3.351084E-2,1.5474938E-1],"categories":[],"categories_nodes":[],"categories_segments":[],"categories_sizes":[],"default_left":[0,0,0,0,0,0,0,0,0,0,0,0,0,0,0,0,0,0,0,0,0,0,0,0,0,0,0,0,0,0,0,0,0,0,0,0,0,0,0,0,0,0,0,0,0],"id":22,"left_children":[1,3,5,7,9,11,13,15,17,19,21,23,25,27,29,31,33,-1,35,37,39,41,-1,-1,-1,-1,-1,-1,-1,-1,43,-1,-1,-1,-1,-1,-1,-1,-1,-1,-1,-1,-1,-1,-1],"loss_changes":[3.700967E0,5.103549E1,6.351855E1,9.920221E0,1.6080425E1,2.5538063E0,1.7967396E0,1.7613163E1,1.8363598E1,2.0880241E0,7.083763E0,6.426058E-1,1.9202423E-1,2.2042522E1,2.2757366E1,5.7780633E0,5.008568E0,0E0,4.3802204E0,3.1677306E-1,6.842003E-1,4.5991974E0,0E0,0E0,0E0,0E0,0E0,0E0,0E0,0E0,1.8680115E0,0E0,0E0,0E0,0E0,0E0,0E0,0E0,0E0,0E0,0E0,0E0,0E0,0E0,0E0],"parents":[2147483647,0,0,1,1,2,2,3,3,4,4,5,5,6,6,7,7,8,8,9,9,10,10,11,11,12,12,13,13,14,14,15,15,16,16,18,18,19,19,20,20,21,21,30,30],"right_children":[2,4,6,8,10,12,14,16,18,20,22,24,26,28,30,32,34,-1,36,38,40,42,-1,-1,-1,-1,-1,-1,-1,-1,44,-1,-1,-1,-1,-1,-1,-1,-1,-1,-1,-1,-1,-1,-1],"split_conditions":[2.096948E5,2.0523016E5,2.086306E5,1.0586107E5,9E1,1.0492031E5,2.4515525E5,1.0492031E5,1.0492031E5,2.6559572E5,2.0495138E5,5.675676E4,4.2925744E5,2.4804398E5,2.4415394E5,2.504078E4,4.545E3,-3.516963E-1,1.9794E5,4.5778912E5,3.3046128E5,1.1361457E5,8.296366E-2,-1.1664668E-2,-2.7887586E-1,-6.1580706E-1,-2.9450923E-1,3.3098862E-1,-5.517522E-1,-6.679697E-1,1E0,-4.0996347E-2,5.5523776E-2,1.4667282E-2,-3.4536043E-1,1.7046715E-1,-7.749871E-2,2.0603082E-1,1.9729171E-2,-2.0099832E-1,1.8481002E-3,-3.0387402E-1,-5.794643E-1,3.351084E-2,1.5474938E-1],"split_indices":[1,0,0,1,1,0,1,0,0,2,1,0,1,0,0,1,1,0,1,0,0,1,0,0,0,0,0,0,0,0,3,0,0,0,0,0,0,0,0,0,0,0,0,0,0],"split_type":[0,0,0,0,0,0,0,0,0,0,0,0,0,0,0,0,0,0,0,0,0,0,0,0,0,0,0,0,0,0,0,0,0,0,0,0,0,0,0,0,0,0,0,0,0],"sum_hessian":[4.9543927E2,3.7107434E2,1.2436493E2,3.293549E2,4.1719437E1,1.7458027E1,1.069069E2,2.4550064E2,8.3854256E1,9.084076E0,3.263536E1,5.4756203E0,1.1982408E1,1.875895E1,8.814795E1,2.2527342E2,2.0227222E1,6.2485766E0,7.760568E1,4.1336946E0,4.9503818E0,3.0611507E1,2.0238519E0,1.0581282E0,4.4174924E0,8.716382E0,3.2660253E0,1.671083E1,2.0481172E0,2.3151996E0,8.583275E1,9.7723915E1,1.2754951E2,4.2754345E0,1.5951787E1,7.1136566E1,6.4691114E0,2.791601E0,1.3420938E0,2.0052094E0,2.9451723E0,1.4846862E1,1.5764647E1,1.4346985E1,7.148576E1],"tree_param":{"num_deleted":"0","num_feature":"7","num_nodes":"45","size_leaf_vector":"1"}},{"base_weights":[-2.047393E-2,-2.8296873E-2,6.56706E-1,-2.4985713E-1,-1.2717257E-3,3.0576095E-2,2.3098734E-1,-2.9647425E-1,1.0068482E-1,3.1995937E-1,-1.7334655E-2,3.3086377E-1,-9.198806E-1,6.8410546E-1,-4.3999785E-1,-4.1207084E-1,6.232175E-3,1.18291266E-1,-1.3569143E-1,-7.0075125E-2,-3.252605E-1,8.728698E-2,2.916602E-1,-2.6393768E-1,1.0414118E-2,-6.8143354E-4,2.0897248E-1],"categories":[],"categories_nodes":[],"categories_segments":[],"categories_sizes":[],"default_left":[0,0,0,0,0,0,0,0,0,0,0,0,0,0,0,0,0,0,0,0,0,0,0,0,0,0,0],"id":23,"left_children":[1,3,5,7,9,-1,-1,-1,11,13,15,17,19,21,-1,23,25,-1,-1,-1,-1,-1,-1,-1,-1,-1,-1],"loss_changes":[2.4916127E0,2.7687142E0,2.5908923E-1,1.311145E1,2.1375322E0,0E0,0E0,0E0,8.5252495E0,1.3838427E1,3.67205E0,1.6336384E0,5.028777E-1,1.6505618E0,0E0,4.6776543E0,2.1925151E0,0E0,0E0,0E0,0E0,0E0,0E0,0E0,0E0,0E0,0E0],"parents":[2147483647,0,0,1,1,2,2,3,3,4,4,8,8,9,9,10,10,11,11,12,12,13,13,15,15,16,16],"right_children":[2,4,6,8,10,-1,-1,-1,12,14,16,18,20,22,-1,24,26,-1,-1,-1,-1,-1,-1,-1,-1,-1,-1],"split_conditions":[1.9264446E6,1E0,2.0939515E6,1E0,4.87742E3,3.0576095E-2,2.3098734E-1,-2.9647425E-1,1.33764E3,5.028E3,4.05E3,1.3030295E6,9E1,1.193E3,-4.3999785E-1,9.426184E4,5.776147E5,1.18291266E-1,-1.3569143E-1,-7.0075125E-2,-3.252605E-1,8.728698E-2,2.916602E-1,-2.6393768E-1,1.0414118E-2,-6.8143354E-4,2.0897248E-1],"split_indices":[0,3,1,6,0,0,0,0,2,1,1,0,1,1,0,0,0,0,0,0,0,0,0,0,0,0,0],"split_type":[0,0,0,0,0,0,0,0,0,0,0,0,0,0,0,0,0,0,0,0,0,0,0,0,0,0,0],"sum_hessian":[4.6582608E2,4.614535E2,4.3726068E0,4.927086E1,4.1218262E2,1.0633801E0,3.3092268E0,1.5275328E1,3.3995533E1,1.872836E1,3.9345425E2,2.8290646E1,5.7048855E0,1.6070074E1,2.6582847E0,2.123811E1,3.7221616E2,2.6630013E1,1.6606332E0,1.5698434E0,4.135042E0,7.6459575E0,8.424116E0,9.902452E0,1.1335658E1,3.6867157E2,3.5445747E0],"tree_param":{"num_deleted":"0","num_feature":"7","num_nodes":"27","size_leaf_vector":"1"}},{"base_weights":[-1.7038928E-2,-3.456492E-2,2.0881306E-1,-1.1443254E-2,-3.7154755E-1,-4.9463713E-1,4.4836387E-1,-4.8592694E-2,1.537739E-1,1.8496585E-1,-3.2127994E-1,2.6728848E-1,2.561356E-1,4.94789E-2,-1.1155139E0,-1.3684851E0,4.383776E-1,3.6906117E-1,-4.992318E-2,-2.9188508E-1,3.8651142E-1,-6.795855E-3,7.876666E-2,-9.865555E-3,-3.9883575E-1,-3.445833E-2,-4.474611E-1,1.4685935E-1,-2.1162823E-2,8.017622E-3,1.5880913E-1,1.6332148E-1,4.6547383E-2],"categories":[],"categories_nodes":[],"categories_segments":[],"categories_sizes":[],"default_left":[0,0,0,0,0,0,0,0,0,0,0,0,0,0,0,0,0,0,0,0,0,0,0,0,0,0,0,0,0,0,0,0,0],"id":24,"left_children":[1,3,5,7,-1,9,11,13,15,17,-1,-1,19,21,23,25,27,29,-1,-1,31,-1,-1,-1,-1,-1,-1,-1,-1,-1,-1,-1,-1],"loss_changes":[1.8100938E0,1.1775505E1,5.7727385E0,2.5641856E0,0E0,3.661658E0,1.9070864E0,3.5719673E1,3.3833614E1,3.7907577E-1,0E0,0E0,3.4048686E0,4.818348E0,6.6119347E0,1.7299995E0,1.7366877E0,1.7974517E-1,0E0,0E0,5.6591034E-1,0E0,0E0,0E0,0E0,0E0,0E0,0E0,0E0,0E0,0E0,0E0,0E0],"parents":[2147483647,0,0,1,1,2,2,3,3,5,5,6,6,7,7,8,8,9,9,12,12,13,13,14,14,15,15,16,16,17,17,20,20],"right_children":[2,4,6,8,-1,10,12,14,16,18,-1,-1,20,22,24,26,28,30,-1,-1,32,-1,-1,-1,-1,-1,-1,-1,-1,-1,-1,-1,-1],"split_conditions":[4.092708E5,4.1669716E5,4.0416506E5,2.096948E5,-3.7154755E-1,9E1,4.6144253E5,2.1208973E5,2.086306E5,1.088287E6,-3.2127994E-1,2.6728848E-1,4.5778912E5,1.0586107E5,9E1,7.266595E4,3.9766115E6,1E0,-4.992318E-2,-2.9188508E-1,7.381902E4,-6.795855E-3,7.876666E-2,-9.865555E-3,-3.9883575E-1,-3.445833E-2,-4.474611E-1,1.4685935E-1,-2.1162823E-2,8.017622E-3,1.5880913E-1,1.6332148E-1,4.6547383E-2],"split_indices":[0,1,1,1,0,1,1,0,0,2,0,0,0,1,1,0,2,3,0,0,2,0,0,0,0,0,0,0,0,0,0,0,0],"split_type":[0,0,0,0,0,0,0,0,0,0,0,0,0,0,0,0,0,0,0,0,0,0,0,0,0,0,0,0,0,0,0,0,0],"sum_hessian":[4.5446957E2,4.2252853E2,3.1941029E1,4.155572E2,6.971358E0,7.8434834E0,2.4097544E1,3.398476E2,7.5709595E1,3.910743E0,3.9327407E0,6.1961803E0,1.7901363E1,3.1211185E2,2.773575E1,1.1325348E1,6.438425E1,2.5332022E0,1.3775408E0,1.0970007E0,1.6804363E1,2.3384363E2,7.826821E1,4.76687E0,2.2968882E1,1.1851147E0,1.0140233E1,5.853842E1,5.845822E0,1.1799873E0,1.3532149E0,9.183621E0,7.620742E0],"tree_param":{"num_deleted":"0","num_feature":"7","num_nodes":"33","size_leaf_vector":"1"}},{"base_weights":[-1.6819488E-2,-2.1718417E-1,5.425367E-3,-2.88165E-1,7.4334E-2,-3.461497E-3,2.0551269E-1,2.7463198E-1,-7.4625254E-1,7.855404E-3,-4.2713568E-1,-2.531012E-1,3.7027535E-1,2.0628253E-2,-3.1816414E-1,-4.4701183E-3,4.8273218E-1,1.2610951E-1,-3.366211E-1,-9.337833E-2,1.2545274E-1,2.8674456E-3,-3.376013E-1,-8.311501E-2,2.3034826E-1],"categories":[],"categories_nodes":[],"categories_segments":[],"categories_sizes":[],"default_left":[0,0,0,0,0,0,0,0,0,0,0,0,0,0,0,0,0,0,0,0,0,0,0,0,0],"id":25,"left_children":[1,3,5,-1,7,9,-1,11,13,15,-1,17,19,-1,-1,21,23,-1,-1,-1,-1,-1,-1,-1,-1],"loss_changes":[1.9448858E0,9.52021E0,2.378929E0,0E0,5.505289E0,6.2703953E0,0E0,1.4389513E0,1.7625406E0,2.269206E0,0E0,3.2123485E0,8.799987E-1,0E0,0E0,5.96248E0,2.3372242E0,0E0,0E0,0E0,0E0,0E0,0E0,0E0,0E0],"parents":[2147483647,0,0,1,1,2,2,4,4,5,5,7,7,8,8,9,9,11,11,12,12,15,15,16,16],"right_children":[2,4,6,-1,8,10,-1,12,14,16,-1,18,20,-1,-1,22,24,-1,-1,-1,-1,-1,-1,-1,-1],"split_conditions":[1E0,1E0,5.776147E5,-2.88165E-1,1.33764E3,5.791786E5,2.0551269E-1,1.2862E4,9E1,4.382246E5,-4.2713568E-1,1.307453E4,1.694647E4,2.0628253E-2,-3.1816414E-1,4.424603E5,3.08566E5,1.2610951E-1,-3.366211E-1,-9.337833E-2,1.2545274E-1,2.8674456E-3,-3.376013E-1,-8.311501E-2,2.3034826E-1],"split_indices":[3,6,0,0,2,1,0,1,1,0,0,0,0,0,0,1,1,0,0,0,0,0,0,0,0],"split_type":[0,0,0,0,0,0,0,0,0,0,0,0,0,0,0,0,0,0,0,0,0,0,0,0,0],"sum_hessian":[4.3509402E2,4.2602238E1,3.924918E2,1.1354214E1,3.1248024E1,3.8840778E2,4.084024E0,2.5651934E1,5.5960903E0,3.8632407E2,2.0836952E0,3.6831331E0,2.19688E1,1.7748519E0,3.821238E0,3.7751614E2,8.807921E0,2.3658257E0,1.3173075E0,1.0815943E0,2.0887205E1,3.7382895E2,3.6872013E0,2.4109452E0,6.396976E0],"tree_param":{"num_deleted":"0","num_feature":"7","num_nodes":"25","size_leaf_vector":"1"}},{"base_weights":[-1.5535459E-2,4.9106064E-1,-2.3224313E-2,6.193233E-1,-8.191846E-3,-3.1213015E-1,-5.2947225E-3,4.6084136E-2,2.5620982E-1,-8.844003E-1,-3.1245986E-2,2.8291395E-1,-2.5696104E-2,-1.4061641E-2,-2.9890177E-1,2.0770453E-1,-2.33671E-1,6.5779006E-1,-1.09165E0,-4.68002E-1,4.547722E-3,2.2717034E-2,2.848138E-1,2.5204045E-1,-1.559397E-1,-3.9221284E-1,-1.9248839E-3,-1.915655E-1,5.855624E-3],"categories":[],"categories_nodes":[],"categories_segments":[],"categories_sizes":[],"default_left":[0,0,0,0,0,0,0,0,0,0,0,0,0,0,0,0,0,0,0,0,0,0,0,0,0,0,0,0,0],"id":26,"left_children":[1,3,5,7,-1,9,11,-1,-1,13,15,17,19,-1,-1,21,-1,23,25,-1,27,-1,-1,-1,-1,-1,-1,-1,-1],"loss_changes":[1.6763592E0,4.4480157E-1,2.1843336E0,4.3735063E-1,0E0,3.9334128E0,2.3496027E0,0E0,0E0,7.1047544E-1,3.2999928E0,1.4331118E1,1.7313139E1,0E0,0E0,1.3084202E0,0E0,5.0278196E0,1.4049468E0,0E0,3.543339E0,0E0,0E0,0E0,0E0,0E0,0E0,0E0,0E0],"parents":[2147483647,0,0,1,1,2,2,3,3,5,5,6,6,9,9,10,10,11,11,12,12,15,15,17,17,18,18,20,20],"right_children":[2,4,6,8,-1,10,12,-1,-1,14,16,18,20,-1,-1,22,-1,24,26,-1,28,-1,-1,-1,-1,-1,-1,-1,-1],"split_conditions":[6.9585E2,4.819E2,1.01E3,9E1,-8.191846E-3,2.275741E4,9.959E3,4.6084136E-2,2.5620982E-1,1.59475E3,1.3005429E6,1.000551E4,1.000551E4,-1.4061641E-2,-2.9890177E-1,1.0573165E6,-2.33671E-1,1.236559E6,6.853624E4,-4.68002E-1,1.1467E4,2.2717034E-2,2.848138E-1,2.5204045E-1,-1.559397E-1,-3.9221284E-1,-1.9248839E-3,-1.915655E-1,5.855624E-3],"split_indices":[0,1,1,1,0,0,1,0,0,0,2,0,0,0,0,2,0,2,0,0,1,0,0,0,0,0,0,0,0],"split_type":[0,0,0,0,0,0,0,0,0,0,0,0,0,0,0,0,0,0,0,0,0,0,0,0,0,0,0,0,0],"sum_hessian":[4.2644376E2,5.435686E0,4.2100806E2,4.2013593E0,1.2343272E0,2.3642319E1,3.9736572E2,1.9622849E0,2.2390742E0,7.0763717E0,1.6565948E1,2.5418154E1,3.7194757E2,1.0015432E0,6.074828E0,1.3101056E1,3.4648914E0,2.038118E1,5.0369744E0,6.2122197E0,3.6573535E2,1.2057518E1,1.0435385E0,1.789654E1,2.48464E0,4.0309873E0,1.0059872E0,7.372846E0,3.5836252E2],"tree_param":{"num_deleted":"0","num_feature":"7","num_nodes":"29","size_leaf_vector":"1"}},{"base_weights":[-1.3941073E-2,3.7851747E-2,-8.5743375E-2,1.0838351E-1,-1.4546336E0,-9.3160534E-1,1.3605219E-1,5.4833833E-2,9.006305E-1,-8.1205255E-1,-6.4015305E-1,-6.244256E-2,-1.3406922E0,1.0254871E-1,6.3325983E-1,9.438105E-2,-1.5317574E-1,-1.9579063E-1,3.2452857E-1,-1.4255262E-2,-2.806575E-1,3.0220369E-1,-4.2428413E-1,1.1060494E-1,-1.4513004E0,1.4276382E-1,-9.566263E-1,8.1555957E-1,-2.9651348E-2,1.524356E-2,1.3640356E-1,-1.4767528E-1,4.656005E-3,-1.4055268E-2,3.1407207E-1,-2.245014E-1,2.5149714E-3,-3.1749856E-1,-6.54021E-1,2.952097E-2,1.420386E-1,5.701253E-2,-4.010466E-1,5.0633434E-2,2.7173334E-1],"categories":[],"categories_nodes":[],"categories_segments":[],"categories_sizes":[],"default_left":[0,0,0,0,0,0,0,0,0,0,0,0,0,0,0,0,0,0,0,0,0,0,0,0,0,0,0,0,0,0,0,0,0,0,0,0,0,0,0,0,0,0,0,0,0],"id":27,"left_children":[1,3,5,7,9,11,13,15,17,19,-1,21,23,25,27,29,31,-1,-1,-1,-1,33,35,-1,37,39,41,43,-1,-1,-1,-1,-1,-1,-1,-1,-1,-1,-1,-1,-1,-1,-1,-1,-1],"loss_changes":[1.5694033E0,2.598556E1,3.329336E1,9.929449E0,3.129692E0,1.3019886E1,2.2827532E0,1.8356259E0,4.87755E0,6.48365E-1,0E0,1.8228047E0,5.26371E0,5.811458E0,1.2422285E0,2.9067256E0,2.0524302E0,0E0,0E0,0E0,0E0,1.8636589E0,9.684292E-1,0E0,4.477974E0,1.8491528E0,2.4352899E0,2.6005745E-1,0E0,0E0,0E0,0E0,0E0,0E0,0E0,0E0,0E0,0E0,0E0,0E0,0E0,0E0,0E0,0E0,0E0],"parents":[2147483647,0,0,1,1,2,2,3,3,4,4,5,5,6,6,7,7,8,8,9,9,11,11,12,12,13,13,14,14,15,15,16,16,21,21,22,22,24,24,25,25,26,26,27,27],"right_children":[2,4,6,8,10,12,14,16,18,20,-1,22,24,26,28,30,32,-1,-1,-1,-1,34,36,-1,38,40,42,44,-1,-1,-1,-1,-1,-1,-1,-1,-1,-1,-1,-1,-1,-1,-1,-1,-1],"split_conditions":[1.3077709E5,1.33546E5,1.33546E5,1.1011E5,1.0685022E5,4.545E3,5.6632275E6,1.3005429E6,1.0871127E5,5.675676E4,-6.4015305E-1,2.6559572E5,1.3334983E5,3.9766115E6,3.5783656E5,7.5390494E5,2.070145E6,-1.9579063E-1,3.2452857E-1,-1.4255262E-2,-2.806575E-1,1.33764E3,3.3046128E5,1.1060494E-1,1.1011E5,1.7270279E6,2.2640277E5,1.5639645E5,-2.9651348E-2,1.524356E-2,1.3640356E-1,-1.4767528E-1,4.656005E-3,-1.4055268E-2,3.1407207E-1,-2.245014E-1,2.5149714E-3,-3.1749856E-1,-6.54021E-1,2.952097E-2,1.420386E-1,5.701253E-2,-4.010466E-1,5.0633434E-2,2.7173334E-1],"split_indices":[0,1,1,1,0,1,2,2,0,0,0,2,0,2,1,2,2,0,0,0,0,2,0,0,1,2,1,1,0,0,0,0,0,0,0,0,0,0,0,0,0,0,0,0,0],"split_type":[0,0,0,0,0,0,0,0,0,0,0,0,0,0,0,0,0,0,0,0,0,0,0,0,0,0,0,0,0,0,0,0,0,0,0,0,0,0,0,0,0,0,0,0,0],"sum_hessian":[4.2014102E2,2.4435466E2,1.7578636E2,2.342136E2,1.0141067E1,3.5853096E1,1.3993327E2,2.2038641E2,1.3827178E1,6.339258E0,3.8018086E0,1.1843194E1,2.4009901E1,1.3222946E2,7.7038064E0,1.8563866E2,3.474775E1,1.1721832E0,1.2654995E1,1.0739928E0,5.2652655E0,5.980827E0,5.8623676E0,1.3173834E0,2.2692518E1,1.2822615E2,4.00332E0,6.076654E0,1.6271523E0,1.6662987E2,1.900879E1,1.0906971E1,2.3840778E1,4.7101774E0,1.2706496E0,2.9347458E0,2.9276218E0,1.6335953E1,6.356566E0,1.1420412E2,1.4022031E1,1.1213826E0,2.8819375E0,1.0952798E0,4.9813743E0],"tree_param":{"num_deleted":"0","num_feature":"7","num_nodes":"45","size_leaf_vector":"1"}},{"base_weights":[-1.4678816E-2,-2.1152236E-1,4.6495176E-3,-2.778078E-1,3.0161595E-2,-1.6591394E-3,2.0808898E-1,2.0396748E-1,-6.4984995E-1,7.019026E-3,-3.103236E-1,-3.3957738E-1,3.0203485E-1,-2.7304512E-1,5.8025103E-2,2.1374445E-1,1.6400988E-3,8.4809706E-2,-2.821199E-1,5.804102E-2,2.1975164E-1,-2.3266817E-3,1.1384687E-1],"categories":[],"categories_nodes":[],"categories_segments":[],"categories_sizes":[],"default_left":[0,0,0,0,0,0,0,0,0,0,0,0,0,0,0,0,0,0,0,0,0,0,0],"id":28,"left_children":[1,3,5,-1,7,9,-1,11,13,15,-1,17,19,-1,-1,-1,21,-1,-1,-1,-1,-1,-1],"loss_changes":[1.553434E0,6.331777E0,1.6203871E0,0E0,3.4710138E0,3.3247097E0,0E0,1.342295E0,1.4906099E0,1.3954861E0,0E0,1.770923E0,8.038107E-1,0E0,0E0,0E0,1.3032889E0,0E0,0E0,0E0,0E0,0E0,0E0],"parents":[2147483647,0,0,1,1,2,2,4,4,5,5,7,7,8,8,9,9,11,11,12,12,16,16],"right_children":[2,4,6,-1,8,10,-1,12,14,16,-1,18,20,-1,-1,-1,22,-1,-1,-1,-1,-1,-1],"split_conditions":[1E0,1E0,6.6567644E5,-2.778078E-1,1.33764E3,5.984267E5,2.0808898E-1,1.2862E4,1.3824744E6,2.1583E2,-3.103236E-1,1.307453E4,6.55677E5,-2.7304512E-1,5.8025103E-2,2.1374445E-1,4.382246E5,8.4809706E-2,-2.821199E-1,5.804102E-2,2.1975164E-1,-2.3266817E-3,1.1384687E-1],"split_indices":[3,6,0,0,2,1,0,1,0,0,0,0,1,0,0,0,0,0,0,0,0,0,0],"split_type":[0,0,0,0,0,0,0,0,0,0,0,0,0,0,0,0,0,0,0,0,0,0,0],"sum_hessian":[4.0703955E2,3.5505093E1,3.7153445E2,8.258494E0,2.7246597E1,3.691519E2,2.3825514E0,2.2257738E1,4.988859E0,3.670607E2,2.0911877E0,3.025578E0,1.923216E1,3.7515213E0,1.2373376E0,1.7828034E0,3.652779E2,1.7463496E0,1.2792284E0,1.6516207E1,2.7159529E0,3.573709E2,7.907005E0],"tree_param":{"num_deleted":"0","num_feature":"7","num_nodes":"23","size_leaf_vector":"1"}},{"base_weights":[-1.1377142E-2,2.9960103E-2,-8.634177E-2,-2.1217935E-2,2.5868303E-1,-3.2572585E-1,-2.805566E-2,-5.353666E-3,-5.552067E-1,5.769136E-1,1.2485642E-1,-5.068803E-1,-1.5104826E-1,2.6772767E-1,-9.8702155E-2,-3.1682324E-2,2.3749626E-1,-7.8524166E-1,5.04118E-2,7.845357E-1,-3.4790426E-1,-5.192966E-1,2.2232546E-1,-2.8724173E-1,-9.697312E-1,4.937879E-1,-5.297648E-1,-1.7165636E-1,3.44399E-1,-6.589185E-1,-6.35859E-2,2.196416E-3,-3.0900773E-1,-2.925703E-1,1.2358285E-1,-3.498625E-2,-3.4459874E-1,1.5874106E-1,3.4004843E-1,-1.530082E-1,-8.846581E-3,-1.5323772E-2,-3.4408548E-1,1.6983521E-1,2.1790251E-2,-1.5349266E-1,1.535583E-1,-3.8299927E-1,-4.820907E-2,-1.1201345E-1,2.2376339E-1,-4.5519352E-1,-3.063497E-2,2.300112E-1,5.3621944E-2,-4.5756686E-2,-3.315645E-1,2.6558283E-1,-2.647421E-2],"categories":[],"categories_nodes":[],"categories_segments":[],"categories_sizes":[],"default_left":[0,0,0,0,0,0,0,0,0,0,0,0,0,0,0,0,0,0,0,0,0,0,0,0,0,0,0,0,0,0,0,0,0,0,0,0,0,0,0,0,0,0,0,0,0,0,0,0,0,0,0,0,0,0,0,0,0,0,0],"id":29,"left_children":[1,3,5,7,9,11,13,15,17,19,21,23,25,27,29,31,33,35,-1,37,39,41,43,45,47,49,51,-1,53,55,57,-1,-1,-1,-1,-1,-1,-1,-1,-1,-1,-1,-1,-1,-1,-1,-1,-1,-1,-1,-1,-1,-1,-1,-1,-1,-1,-1,-1],"loss_changes":[1.2518985E0,3.0560155E0,1.9938023E0,1.8088669E0,1.9604917E0,8.099084E-1,2.4615946E0,1.3420467E0,1.1569779E0,2.9327874E0,2.3049614E0,1.0763423E0,4.0924096E0,1.6612897E0,1.823072E0,7.374235E0,4.74555E0,1.0446963E0,0E0,4.3583822E-1,1.5182963E-1,1.3764396E0,1.5537126E0,2.1374652E0,7.554009E-1,1.660429E0,4.2224035E0,0E0,1.3642511E0,1.0710676E0,2.1915197E0,0E0,0E0,0E0,0E0,0E0,0E0,0E0,0E0,0E0,0E0,0E0,0E0,0E0,0E0,0E0,0E0,0E0,0E0,0E0,0E0,0E0,0E0,0E0,0E0,0E0,0E0,0E0,0E0],"parents":[2147483647,0,0,1,1,2,2,3,3,4,4,5,5,6,6,7,7,8,8,9,9,10,10,11,11,12,12,13,13,14,14,15,15,16,16,17,17,19,19,20,20,21,21,22,22,23,23,24,24,25,25,26,26,28,28,29,29,30,30],"right_children":[2,4,6,8,10,12,14,16,18,20,22,24,26,28,30,32,34,36,-1,38,40,42,44,46,48,50,52,-1,54,56,58,-1,-1,-1,-1,-1,-1,-1,-1,-1,-1,-1,-1,-1,-1,-1,-1,-1,-1,-1,-1,-1,-1,-1,-1,-1,-1,-1,-1],"split_conditions":[5.1616484E5,2.5172206E5,7.341485E5,2.3087723E5,5.138483E4,1.0685022E5,9.898879E5,3.1778712E5,2.5502894E5,4.3688822E5,6.853624E4,7.88103E4,1.7772228E5,3.91E2,1.0573165E6,3.198871E5,3.0264816E5,8.774895E4,5.04118E-2,3.553972E5,5.259E3,6.9661E4,1.133608E5,6.648902E4,8.774895E4,5.545165E5,2.275438E5,-1.7165636E-1,3.135872E4,1.704086E5,1.088287E6,2.196416E-3,-3.0900773E-1,-2.925703E-1,1.2358285E-1,-3.498625E-2,-3.4459874E-1,1.5874106E-1,3.4004843E-1,-1.530082E-1,-8.846581E-3,-1.5323772E-2,-3.4408548E-1,1.6983521E-1,2.1790251E-2,-1.5349266E-1,1.535583E-1,-3.8299927E-1,-4.820907E-2,-1.1201345E-1,2.2376339E-1,-4.5519352E-1,-3.063497E-2,2.300112E-1,5.3621944E-2,-4.5756686E-2,-3.315645E-1,2.6558283E-1,-2.647421E-2],"split_indices":[2,2,2,2,0,0,2,1,1,2,0,1,0,1,2,0,0,0,0,2,1,1,0,1,0,2,0,0,0,0,2,0,0,0,0,0,0,0,0,0,0,0,0,0,0,0,0,0,0,0,0,0,0,0,0,0,0,0,0],"split_type":[0,0,0,0,0,0,0,0,0,0,0,0,0,0,0,0,0,0,0,0,0,0,0,0,0,0,0,0,0,0,0,0,0,0,0,0,0,0,0,0,0,0,0,0,0,0,0,0,0,0,0,0,0,0,0,0,0,0,0],"sum_hessian":[4.0215576E2,2.5960425E2,1.4255151E2,2.128787E2,4.672557E1,2.7014236E1,1.1553728E2,2.0771764E2,5.161056E0,1.2852439E1,3.387313E1,1.2327667E1,1.4686568E1,2.1737373E1,9.3799904E1,1.8818503E2,1.9532604E1,3.8506145E0,1.3104416E0,1.0619942E1,2.2324967E0,3.8830478E0,2.9990084E1,9.4594345E0,2.8682327E0,5.3216357E0,9.364933E0,1.2776939E0,2.045968E1,4.4850535E0,8.931485E1,1.8206471E2,6.1203165E0,1.8790735E0,1.765353E1,1.8210844E0,2.02953E0,7.5849423E0,3.0349996E0,1.0805588E0,1.1519381E0,2.84335E0,1.0396979E0,8.253225E0,2.1736858E1,7.666337E0,1.7930976E0,1.6603255E0,1.2079073E0,1.090227E0,4.2314086E0,2.0599515E0,7.304981E0,4.7422786E0,1.57174015E1,2.7296128E0,1.7554408E0,1.3785183E0,8.7936325E1],"tree_param":{"num_deleted":"0","num_feature":"7","num_nodes":"59","size_leaf_vector":"1"}},{"base_weights":[-1.1232081E-2,-1.9922882E-1,5.056486E-3,-2.675298E-1,9.312729E-3,-8.3509326E-4,5.554246E-1,1.5760961E-1,-5.7982E-1,7.743575E-3,-3.8090405E-1,4.2886723E-2,1.9593424E-1,7.280025E-2,1.9789207E-1,5.033778E-2,-2.76732E-1,1.9536874E-1,3.3077835E-3,7.482313E-2,-4.5747258E-2,-1.3588404E-3,1.0933937E-1],"categories":[],"categories_nodes":[],"categories_segments":[],"categories_sizes":[],"default_left":[0,0,0,0,0,0,0,0,0,0,0,0,0,0,0,0,0,0,0,0,0,0,0],"id":30,"left_children":[1,3,5,-1,7,9,11,13,15,17,-1,-1,-1,19,-1,-1,-1,-1,21,-1,-1,-1,-1],"loss_changes":[1.2228726E0,4.606732E0,1.1942875E0,0E0,2.3158064E0,3.9858482E0,6.382024E-2,8.514959E-1,1.5210379E0,1.0363096E0,0E0,0E0,0E0,8.018855E-1,0E0,0E0,0E0,0E0,1.0272174E0,0E0,0E0,0E0,0E0],"parents":[2147483647,0,0,1,1,2,2,4,4,5,5,6,6,7,7,8,8,9,9,13,13,18,18],"right_children":[2,4,6,-1,8,10,12,14,16,18,-1,-1,-1,20,-1,-1,-1,-1,22,-1,-1,-1,-1],"split_conditions":[1E0,1E0,5.776147E5,-2.675298E-1,1.33764E3,5.791786E5,6.55677E5,6.55677E5,9E1,2.1583E2,-3.8090405E-1,4.2886723E-2,1.9593424E-1,1.3334983E5,1.9789207E-1,5.033778E-2,-2.76732E-1,1.9536874E-1,4.382246E5,7.482313E-2,-4.5747258E-2,-1.3588404E-3,1.0933937E-1],"split_indices":[3,6,0,0,2,1,1,1,1,0,0,0,0,0,0,0,0,0,0,0,0,0,0],"split_type":[0,0,0,0,0,0,0,0,0,0,0,0,0,0,0,0,0,0,0,0,0,0,0],"sum_hessian":[3.980158E2,3.084004E1,3.6717578E2,6.379249E0,2.446079E1,3.6427478E2,2.9010053E0,2.0126904E1,4.3338866E0,3.6281567E2,1.4591016E0,1.0272164E0,1.8737888E0,1.8197725E1,1.9291788E0,1.5223392E0,2.8115473E0,1.4856455E0,3.6133002E2,1.0140964E1,8.056762E0,3.5462204E2,6.707987E0],"tree_param":{"num_deleted":"0","num_feature":"7","num_nodes":"23","size_leaf_vector":"1"}},{"base_weights":[-8.629839E-3,-1.8920379E-2,2.1987446E-1,-1.2130018E-2,-3.4345996E-1,-3.289752E-2,5.7598037E-1,3.1581454E-2,-7.6395966E-2,2.6004142E-1,-3.2516828E-1,6.6660714E-1,1.612496E-2,8.7716036E-2,-1.2997092E0,-7.729518E-1,8.950934E-2,-1.3328564E-1,1.8942045E-1,1.1371477E-1,-6.691738E-1,1.9664323E-2,2.3668946E-1,1.1859529E-2,2.1819212E-1,-6.63033E-3,-4.3685153E-1,2.3798678E-2,-3.7548256E-1,3.3871863E-2,-1.673555E-1,1.2050652E-1,-1.7122914E-1,-2.8302208E-1,3.964222E-3],"categories":[],"categories_nodes":[],"categories_segments":[],"categories_sizes":[],"default_left":[0,0,0,0,0,0,0,0,0,0,0,0,0,0,0,0,0,0,0,0,0,0,0,0,0,0,0,0,0,0,0,0,0,0,0],"id":31,"left_children":[1,3,5,7,-1,9,11,13,15,17,19,21,-1,23,25,27,29,31,-1,-1,33,-1,-1,-1,-1,-1,-1,-1,-1,-1,-1,-1,-1,-1,-1],"loss_changes":[9.343129E-1,2.887173E0,1.5604961E0,1.0647776E0,0E0,1.0231007E0,3.0321264E-1,1.6987759E1,1.7794947E1,9.649948E-1,1.6906178E0,3.907745E-1,0E0,6.677087E0,1.8066072E0,1.21785755E1,1.9528902E0,1.1079205E0,0E0,0E0,8.258612E-1,0E0,0E0,0E0,0E0,0E0,0E0,0E0,0E0,0E0,0E0,0E0,0E0,0E0,0E0],"parents":[2147483647,0,0,1,1,2,2,3,3,5,5,6,6,7,7,8,8,9,9,10,10,11,11,13,13,14,14,15,15,16,16,17,17,20,20],"right_children":[2,4,6,8,-1,10,12,14,16,18,20,22,-1,24,26,28,30,32,-1,-1,34,-1,-1,-1,-1,-1,-1,-1,-1,-1,-1,-1,-1,-1,-1],"split_conditions":[5.6632275E6,5.461303E6,1.8769633E5,1.3077709E5,-3.4345996E-1,6.496231E4,3.5783656E5,1.33546E5,1.33546E5,4.023156E4,7.814343E6,1.9183414E5,1.612496E-2,1.0871127E5,6.16992E4,4.545E3,3.9766115E6,1.917911E4,1.8942045E-1,1.1371477E-1,1.1656588E7,1.9664323E-2,2.3668946E-1,1.1859529E-2,2.1819212E-1,-6.63033E-3,-4.3685153E-1,2.3798678E-2,-3.7548256E-1,3.3871863E-2,-1.673555E-1,1.2050652E-1,-1.7122914E-1,-2.8302208E-1,3.964222E-3],"split_indices":[2,2,0,0,0,0,1,1,1,0,2,1,0,0,0,1,2,0,0,0,2,0,0,0,0,0,0,0,0,0,0,0,0,0,0],"split_type":[0,0,0,0,0,0,0,0,0,0,0,0,0,0,0,0,0,0,0,0,0,0,0,0,0,0,0,0,0,0,0,0,0,0,0],"sum_hessian":[3.9456857E2,3.7844284E2,1.6125723E1,3.7717892E2,1.263919E0,9.962052E0,6.1636705E0,2.2479187E2,1.5238705E2,5.030412E0,4.9316406E0,5.016633E0,1.1470374E0,2.1659322E2,8.198657E0,2.8609726E1,1.2377733E2,2.7542882E0,2.2761242E0,1.5850327E0,3.3466077E0,1.1082534E0,3.9083798E0,2.0240651E2,1.4186705E1,1.0190195E0,7.1796374E0,1.0589203E1,1.8020523E1,1.20256615E2,3.5207157E0,1.2758783E0,1.4784099E0,2.1143856E0,1.2322222E0],"tree_param":{"num_deleted":"0","num_feature":"7","num_nodes":"35","size_leaf_vector":"1"}},{"base_weights":[-1.0101442E-2,-1.7038156E-1,2.8233065E-3,-2.5618932E-1,7.6035596E-3,-8.010628E-2,3.3500448E-2,1.3657767E-1,-5.019884E-1,8.6124465E-2,-2.4765472E-1,3.75724E-1,8.820096E-4,-2.0711806E-1,2.5522125E-1,-2.3611918E-1,5.9031192E-2,-9.821597E-2,3.3237717E-1,-6.686176E-1,-1.2562458E-1,2.561084E-1,2.4943422E-1,-5.784804E-1,2.294791E-2,1.1013707E-1,-1.953128E-1,1.443394E-1,2.3597794E-2,8.935619E-3,-2.9361382E-1,-2.6391092E-1,1.3588528E-1,7.9709195E-2,-4.169288E-1,8.862642E-2,-1.0407745E-1,-1.6950656E-1,9.9543326E-2,-2.1318687E-1,5.73705E-2,1.4856389E-1,8.100437E-4],"categories":[],"categories_nodes":[],"categories_segments":[],"categories_sizes":[],"default_left":[0,0,0,0,0,0,0,0,0,0,0,0,0,0,0,0,0,0,0,0,0,0,0,0,0,0,0,0,0,0,0,0,0,0,0,0,0,0,0,0,0,0,0],"id":32,"left_children":[1,3,5,-1,7,9,11,13,15,17,19,21,23,25,27,-1,-1,29,31,33,35,-1,37,39,41,-1,-1,-1,-1,-1,-1,-1,-1,-1,-1,-1,-1,-1,-1,-1,-1,-1,-1],"loss_changes":[8.0145925E-1,3.5188699E0,9.1544074E-1,0E0,1.6391081E0,2.7278621E0,2.9310818E0,8.625254E-1,1.1588893E0,2.280666E0,2.4153938E0,1.1663115E0,3.091139E0,1.6786289E0,5.687754E-1,0E0,0E0,3.3080914E0,3.5301905E0,7.580731E0,3.7318888E0,0E0,1.4948865E0,1.0382149E0,2.2255812E0,0E0,0E0,0E0,0E0,0E0,0E0,0E0,0E0,0E0,0E0,0E0,0E0,0E0,0E0,0E0,0E0,0E0,0E0],"parents":[2147483647,0,0,1,1,2,2,4,4,5,5,6,6,7,7,8,8,9,9,10,10,11,11,12,12,13,13,14,14,17,17,18,18,19,19,20,20,22,22,23,23,24,24],"right_children":[2,4,6,-1,8,10,12,14,16,18,20,22,24,26,28,-1,-1,30,32,34,36,-1,38,40,42,-1,-1,-1,-1,-1,-1,-1,-1,-1,-1,-1,-1,-1,-1,-1,-1,-1,-1],"split_conditions":[1E0,1E0,5.59877E3,-2.5618932E-1,1.33764E3,8.45204E4,4.683805E4,2.227671E4,1.3824744E6,3.2304E4,8.477155E4,1.0633E4,6.385008E4,1.638047E4,1.3334983E5,-2.3611918E-1,5.9031192E-2,3.246369E4,3.135872E4,4.545E3,1.5110597E5,2.561084E-1,1.436829E4,2.0124725E5,9.053592E4,1.1013707E-1,-1.953128E-1,1.443394E-1,2.3597794E-2,8.935619E-3,-2.9361382E-1,-2.6391092E-1,1.3588528E-1,7.9709195E-2,-4.169288E-1,8.862642E-2,-1.0407745E-1,-1.6950656E-1,9.9543326E-2,-2.1318687E-1,5.73705E-2,1.4856389E-1,8.100437E-4],"split_indices":[3,6,2,0,2,0,2,1,0,1,1,1,2,0,0,0,0,0,0,1,0,0,1,1,2,0,0,0,0,0,0,0,0,0,0,0,0,0,0,0,0,0,0],"split_type":[0,0,0,0,0,0,0,0,0,0,0,0,0,0,0,0,0,0,0,0,0,0,0,0,0,0,0,0,0,0,0,0,0,0,0,0,0,0,0,0,0,0,0],"sum_hessian":[3.8565082E2,2.7868633E1,3.5778217E2,4.9725885E0,2.2896044E1,9.617657E1,2.616056E2,1.8855768E1,4.040275E0,4.8522076E1,4.7654495E1,2.184937E1,2.3975623E2,4.6473255E0,1.4208444E1,2.779811E0,1.2604643E0,2.8093176E1,2.0428898E1,9.703066E0,3.795143E1,3.3627012E0,1.8486668E1,7.8712997E0,2.3188493E2,2.1016831E0,2.5456421E0,5.476408E0,8.732036E0,2.5371056E1,2.7221208E0,1.2786964E0,1.9150202E1,4.50193E0,5.2011356E0,1.2959582E1,2.4991848E1,1.159891E0,1.7326777E1,6.7834997E0,1.0877999E0,8.568683E0,2.2331625E2],"tree_param":{"num_deleted":"0","num_feature":"7","num_nodes":"43","size_leaf_vector":"1"}},{"base_weights":[-1.0008781E-2,1.5921718E-1,-1.3357455E-2,-1.300981E-1,7.937396E-3,2.2655986E-1,-5.5166066E-1,-3.7220794E-1,3.2908004E-2,-2.3722492E-1,3.442157E-1,-1.051315E-3,-1.3304272E0,6.617398E-1,3.3859098E-3,2.538489E-2,1.6852163E-1,5.5898514E-2,-2.1894956E-1,-4.3881395E-1,-1.0134405E-2,2.214436E-1,2.0667583E-2,-4.5521215E-1,7.07081E-3],"categories":[],"categories_nodes":[],"categories_segments":[],"categories_sizes":[],"default_left":[0,0,0,0,0,0,0,0,0,0,0,0,0,0,0,0,0,0,0,0,0,0,0,0,0],"id":33,"left_children":[1,-1,3,5,7,9,11,-1,13,-1,15,17,19,21,23,-1,-1,-1,-1,-1,-1,-1,-1,-1,-1],"loss_changes":[6.976981E-1,0E0,9.457642E-1,8.948369E0,1.00911E1,4.16197E0,1.165588E1,0E0,5.882585E0,0E0,1.6367059E0,2.4474838E0,1.8818722E0,5.927992E-1,9.360199E0,0E0,0E0,0E0,0E0,0E0,0E0,0E0,0E0,0E0,0E0],"parents":[2147483647,0,0,2,2,3,3,4,4,5,5,6,6,8,8,10,10,11,11,12,12,13,13,14,14],"right_children":[2,-1,4,6,8,10,12,-1,14,-1,16,18,20,22,24,-1,-1,-1,-1,-1,-1,-1,-1,-1,-1],"split_conditions":[2.1583E2,1.5921718E-1,1.342128E4,1.349913E4,1.307453E4,1.89E2,9E1,-3.7220794E-1,1.952735E4,-2.3722492E-1,5.92439E3,1.3005429E6,1.0871127E5,1.917911E4,1.917911E4,2.538489E-2,1.6852163E-1,5.5898514E-2,-2.1894956E-1,-4.3881395E-1,-1.0134405E-2,2.214436E-1,2.0667583E-2,-4.5521215E-1,7.07081E-3],"split_indices":[0,0,1,0,0,1,1,0,1,0,0,2,0,0,0,0,0,0,0,0,0,0,0,0,0],"split_type":[0,0,0,0,0,0,0,0,0,0,0,0,0,0,0,0,0,0,0,0,0,0,0,0,0],"sum_hessian":[3.8039655E2,1.371943E0,3.790246E2,5.768421E1,3.213404E2,3.149815E1,2.6186064E1,5.3457417E0,3.1599466E2,2.6721935E0,2.8825956E1,1.5926758E1,1.0259305E1,1.3209621E1,3.0278503E2,1.3775185E1,1.5050773E1,1.3261395E1,2.6653621E0,9.193314E0,1.0659918E0,1.1484438E1,1.7251835E0,2.9943078E0,2.997907E2],"tree_param":{"num_deleted":"0","num_feature":"7","num_nodes":"25","size_leaf_vector":"1"}},{"base_weights":[-1.1412337E-2,-2.0615421E-2,1.9727856E-1,-1.4626544E-2,-2.9767895E-1,-1.1721942E-2,4.9718237E-1,1.9050753E-2,-8.195571E-2,2.483395E-1,-2.5267327E-1,6.450527E-1,1.5895396E-1,-1.232405E-2,3.0571944E-1,-2.7450043E-1,-2.6441472E-2,-4.1208383E-2,5.01777E-1,9.660599E-2,-5.278039E-1,6.647287E-2,2.4470095E-1,1.4757827E-1,-5.9905633E-2,5.7764146E-2,-1.2834347E-2,1.21082865E-1,-7.4618496E-2,-6.129281E-2,-2.4574661E-1,1.19314104E-1,-2.0641273E-2,3.548034E-2,1.9068654E-1,-2.223044E-1,3.69981E-3],"categories":[],"categories_nodes":[],"categories_segments":[],"categories_sizes":[],"default_left":[0,0,0,0,0,0,0,0,0,0,0,0,0,0,0,0,0,0,0,0,0,0,0,0,0,0,0,0,0,0,0,0,0,0,0,0,0],"id":34,"left_children":[1,3,5,7,-1,9,11,13,15,17,19,21,23,25,27,29,31,-1,33,-1,35,-1,-1,-1,-1,-1,-1,-1,-1,-1,-1,-1,-1,-1,-1,-1,-1],"loss_changes":[7.234833E-1,2.0783966E0,1.0034137E0,8.143909E-1,0E0,7.116897E-1,2.2552466E-1,2.1602533E0,1.272323E0,6.0508037E-1,1.0983044E0,1.2539995E-1,4.949757E-1,1.362728E0,1.3862388E0,8.5276365E-1,1.7168684E0,0E0,1.05761945E-1,0E0,5.100255E-1,0E0,0E0,0E0,0E0,0E0,0E0,0E0,0E0,0E0,0E0,0E0,0E0,0E0,0E0,0E0,0E0],"parents":[2147483647,0,0,1,1,2,2,3,3,5,5,6,6,7,7,8,8,9,9,10,10,11,11,12,12,13,13,14,14,15,15,16,16,18,18,20,20],"right_children":[2,4,6,8,-1,10,12,14,16,18,20,22,24,26,28,30,32,-1,34,-1,36,-1,-1,-1,-1,-1,-1,-1,-1,-1,-1,-1,-1,-1,-1,-1,-1],"split_conditions":[5.6632275E6,5.461303E6,1.8769633E5,5.1616484E5,-2.9767895E-1,6.496231E4,9.581426E6,3.553972E5,7.341485E5,8.3310895E6,7.814343E6,7.2297125E6,2.4804398E5,1.0407E4,2.5982039E5,3.7709638E5,8.1414744E5,-4.1208383E-2,2.4126E4,9.660599E-2,1.1656588E7,6.647287E-2,2.4470095E-1,1.4757827E-1,-5.9905633E-2,5.7764146E-2,-1.2834347E-2,1.21082865E-1,-7.4618496E-2,-6.129281E-2,-2.4574661E-1,1.19314104E-1,-2.0641273E-2,3.548034E-2,1.9068654E-1,-2.223044E-1,3.69981E-3],"split_indices":[2,2,0,2,0,0,2,2,2,2,2,2,0,1,0,1,2,0,1,0,2,0,0,0,0,0,0,0,0,0,0,0,0,0,0,0,0],"split_type":[0,0,0,0,0,0,0,0,0,0,0,0,0,0,0,0,0,0,0,0,0,0,0,0,0,0,0,0,0,0,0,0,0,0,0,0,0],"sum_hessian":[3.7357898E2,3.5866345E2,1.4915524E1,3.5747516E2,1.1882912E0,9.356188E0,5.559336E0,2.3876474E2,1.1871041E2,4.484911E0,4.871277E0,3.2369993E0,2.3223367E0,2.1607333E2,2.26914E1,2.5683943E1,9.302647E1,1.9600152E0,2.524896E0,1.5219012E0,3.3493755E0,1.5897849E0,1.6472144E0,1.0115387E0,1.3107979E0,2.7276272E1,1.8879707E2,1.9517546E1,3.173854E0,2.3969986E1,1.7139558E0,7.685682E0,8.534079E1,1.1405283E0,1.3843676E0,2.134795E0,1.2145805E0],"tree_param":{"num_deleted":"0","num_feature":"7","num_nodes":"37","size_leaf_vector":"1"}},{"base_weights":[-7.5403866E-3,-1.20771006E-1,1.2462248E-2,2.052957E-1,-4.4597295E-1,-3.3107954E-1,3.167581E-2,1.8973578E-2,5.818762E-1,-9.042321E-1,3.2843906E-2,4.8061827E-1,-5.4154266E-3,2.2606689E-1,-4.6904787E-1,7.6631665E-1,1.9252221E-1,-1.0739933E0,-1.377203E-1,2.7320272E-1,-4.478073E-1,8.1007175E-2,8.7374973E-1,-1.0666819E0,2.7632417E-2,1.2112777E-1,-1.2800382E-1,2.5070864E-1,7.1629725E-2,-1.4026503E-1,2.0910317E-1,-1.1027382E-1,-4.0452102E-1,1.4107324E-1,-2.6604488E-1,3.159735E-1,-2.7682805E-3,-2.2737375E-1,9.033934E-2,1.8937823E-1,-4.339347E-1,2.794772E-1,6.2014107E-2,-1.083202E-1,-3.4746256E-1,2.10241E-1,1.6715605E-3],"categories":[],"categories_nodes":[],"categories_segments":[],"categories_sizes":[],"default_left":[0,0,0,0,0,0,0,0,0,0,0,0,0,0,0,0,0,0,0,0,0,0,0,0,0,0,0,0,0,0,0,0,0,0,0,0,0,0,0,0,0,0,0,0,0,0,0],"id":35,"left_children":[1,3,5,7,9,-1,11,13,15,17,19,21,23,25,-1,27,29,31,33,35,37,39,41,43,45,-1,-1,-1,-1,-1,-1,-1,-1,-1,-1,-1,-1,-1,-1,-1,-1,-1,-1,-1,-1,-1,-1],"loss_changes":[8.5111445E-1,6.0732346E0,6.8906007E0,2.0134249E0,6.2959924E0,0E0,5.252402E0,7.017986E0,5.35882E-1,1.7554626E0,1.8472755E0,3.710703E0,1.0277609E1,2.359401E0,0E0,2.453804E-2,1.7892675E0,1.7971992E0,2.1472986E0,2.3393552E0,1.4722297E0,1.1872303E1,2.7162457E-1,1.5333271E-1,4.218818E0,0E0,0E0,0E0,0E0,0E0,0E0,0E0,0E0,0E0,0E0,0E0,0E0,0E0,0E0,0E0,0E0,0E0,0E0,0E0,0E0,0E0,0E0],"parents":[2147483647,0,0,1,1,2,2,3,3,4,4,6,6,7,7,8,8,9,9,10,10,11,11,12,12,13,13,15,15,16,16,17,17,18,18,19,19,20,20,21,21,22,22,23,23,24,24],"right_children":[2,4,6,8,10,-1,12,14,16,18,20,22,24,26,-1,28,30,32,34,36,38,40,42,44,46,-1,-1,-1,-1,-1,-1,-1,-1,-1,-1,-1,-1,-1,-1,-1,-1,-1,-1,-1,-1,-1,-1],"split_conditions":[1.342128E4,1.229767E4,1.307453E4,7.61849E3,9.426184E4,-3.3107954E-1,2.345185E4,8.03E3,1.8250636E5,1.2237E4,6.162216E5,1.862702E4,2.4126E4,1.3477174E6,-4.6904787E-1,1.0633E4,6.489223E5,9E1,1.349913E4,1.3334983E5,5.0692353E5,1.8722E4,2.299073E4,2.505937E4,2.971791E4,1.2112777E-1,-1.2800382E-1,2.5070864E-1,7.1629725E-2,-1.4026503E-1,2.0910317E-1,-1.1027382E-1,-4.0452102E-1,1.4107324E-1,-2.6604488E-1,3.159735E-1,-2.7682805E-3,-2.2737375E-1,9.033934E-2,1.8937823E-1,-4.339347E-1,2.794772E-1,6.2014107E-2,-1.083202E-1,-3.4746256E-1,2.10241E-1,1.6715605E-3],"split_indices":[1,0,0,0,0,0,0,1,2,1,2,0,1,2,0,1,2,1,0,0,0,1,1,0,1,0,0,0,0,0,0,0,0,0,0,0,0,0,0,0,0,0,0,0,0,0,0],"split_type":[0,0,0,0,0,0,0,0,0,0,0,0,0,0,0,0,0,0,0,0,0,0,0,0,0,0,0,0,0,0,0,0,0,0,0,0,0,0,0,0,0,0,0,0,0,0,0],"sum_hessian":[3.7411826E2,5.5410957E1,3.187073E2,2.7852804E1,2.7558155E1,4.4386787E0,3.1426862E2,1.9336164E1,8.51664E0,1.3627383E1,1.3930771E1,2.3070591E1,2.9119803E2,1.7856476E1,1.4796883E0,5.1220875E0,3.3945522E0,1.0828112E1,2.799272E0,9.574472E0,4.356299E0,1.2039109E1,1.1031482E1,7.849512E0,2.833485E2,1.4335479E1,3.520997E0,4.0105515E0,1.111536E0,1.5022404E0,1.8923118E0,3.6839757E0,7.1441355E0,1.7506775E0,1.0485946E0,1.8196299E0,7.7548423E0,3.07223E0,1.2840686E0,9.28205E0,2.7570586E0,9.786271E0,1.2452114E0,1.4690412E0,6.3804708E0,8.014714E0,2.753338E2],"tree_param":{"num_deleted":"0","num_feature":"7","num_nodes":"47","size_leaf_vector":"1"}},{"base_weights":[-9.3767475E-3,-2.7735861E-2,9.631651E-2,1.8479018E-2,-1.5351775E0,-7.5505096E-1,3.9919165E-1,-1.46001885E-2,2.8240475E-1,-1.5815072E-2,-1.7156954E0,2.890207E-1,-4.407144E-1,5.726187E-1,-5.7051685E-2,4.309163E-2,-1.0525051E0,-4.2792457E-1,5.988967E-1,-3.2335952E-1,-6.681291E-1,1.1790785E-1,1.6629954E-1,7.0923276E-2,6.5168184E-1,-2.7030316E-1,1.65621E-1,-5.1255263E-3,8.088198E-2,-3.1470533E-2,-3.8375396E-1,2.45E-1,5.2577563E-2,-3.5077605E-2,1.0602868E-1,2.5903866E-1,-4.3625152E-1,3.3366978E-3,2.120792E-1,-4.20195E-3,1.17173225E-1],"categories":[],"categories_nodes":[],"categories_segments":[],"categories_sizes":[],"default_left":[0,0,0,0,0,0,0,0,0,0,0,0,0,0,0,0,0,0,0,0,0,0,0,0,0,0,0,0,0,0,0,0,0,0,0,0,0,0,0,0,0],"id":36,"left_children":[1,3,5,7,9,11,13,15,17,-1,19,21,-1,23,25,27,29,-1,31,-1,-1,33,-1,35,37,-1,39,-1,-1,-1,-1,-1,-1,-1,-1,-1,-1,-1,-1,-1,-1],"loss_changes":[7.137621E-1,2.1834026E1,1.4343767E1,2.6641126E0,2.4043293E0,1.1334926E1,3.2627134E0,1.6314154E1,1.9233288E1,0E0,2.999134E-1,2.4241716E-1,0E0,1.1306314E0,2.4330642E0,3.5261562E0,2.947361E0,0E0,2.5670595E0,0E0,0E0,3.395229E-1,0E0,7.4939795E0,8.9486885E-1,0E0,4.2816183E-1,0E0,0E0,0E0,0E0,0E0,0E0,0E0,0E0,0E0,0E0,0E0,0E0,0E0,0E0],"parents":[2147483647,0,0,1,1,2,2,3,3,4,4,5,5,6,6,7,7,8,8,10,10,11,11,13,13,14,14,15,15,16,16,18,18,21,21,23,23,24,24,26,26],"right_children":[2,4,6,8,10,12,14,16,18,-1,20,22,-1,24,26,28,30,-1,32,-1,-1,34,-1,36,38,-1,40,-1,-1,-1,-1,-1,-1,-1,-1,-1,-1,-1,-1,-1,-1],"split_conditions":[2.8698538E5,2.9444934E5,2.8445003E5,2.0495138E5,1.0871127E5,7.88103E4,4.6144253E5,2.0523016E5,2.0271048E5,-1.5815072E-2,2.2151112E5,1.0649959E6,-4.407144E-1,3.00802E5,4.5778912E5,1.1361457E5,9E1,-4.2792457E-1,2.552866E5,-3.2335952E-1,-6.681291E-1,6.0614925E5,1.6629954E-1,3.0264816E5,1E0,-2.7030316E-1,7.27793E5,-5.1255263E-3,8.088198E-2,-3.1470533E-2,-3.8375396E-1,2.45E-1,5.2577563E-2,-3.5077605E-2,1.0602868E-1,2.5903866E-1,-4.3625152E-1,3.3366978E-3,2.120792E-1,-4.20195E-3,1.17173225E-1],"split_indices":[0,1,1,1,0,1,1,0,0,0,0,0,0,1,0,1,1,0,0,0,0,2,0,0,3,0,1,0,0,0,0,0,0,0,0,0,0,0,0,0,0],"split_type":[0,0,0,0,0,0,0,0,0,0,0,0,0,0,0,0,0,0,0,0,0,0,0,0,0,0,0,0,0,0,0,0,0,0,0,0,0,0,0,0,0],"sum_hessian":[3.6545953E2,3.1200183E2,5.345771E1,3.036794E2,8.322409E0,1.3635638E1,3.982207E1,2.7069632E2,3.2983116E1,1.0436568E0,7.2787523E0,5.779513E0,7.856125E0,2.866925E1,1.1152821E1,2.5735004E2,1.3346286E1,4.606188E0,2.8376928E1,4.621897E0,2.6568549E0,4.391574E0,1.3879391E0,4.161225E0,2.4508024E1,1.6923282E0,9.460492E0,2.0406264E2,5.328738E1,2.8586423E0,1.0487643E1,1.8129675E1,1.0247253E1,2.4511395E0,1.9404345E0,3.0237286E0,1.1374964E0,2.0413804E0,2.2466644E1,5.781615E0,3.6788776E0],"tree_param":{"num_deleted":"0","num_feature":"7","num_nodes":"41","size_leaf_vector":"1"}},{"base_weights":[-1.22562125E-2,-1.7647086E-1,3.4328812E-4,-2.4083853E-1,-3.1844262E-2,-4.903133E-3,1.5067628E-1,8.877591E-2,-4.6605736E-1,2.6451605E-3,-3.5578403E-1,-4.1232508E-2,4.276218E-1,2.7920196E-2,-2.3645777E-1,-4.386961E-3,3.2393607E-1,3.4294188E-2,-2.2662656E-1,1.8372501E-1,-3.4076188E-2,1.506927E-3,-2.663873E-1,-5.7200223E-2,1.8055308E-1],"categories":[],"categories_nodes":[],"categories_segments":[],"categories_sizes":[],"default_left":[0,0,0,0,0,0,0,0,0,0,0,0,0,0,0,0,0,0,0,0,0,0,0,0,0],"id":37,"left_children":[1,3,5,-1,7,9,-1,11,13,15,-1,17,19,-1,-1,21,23,-1,-1,-1,-1,-1,-1,-1,-1],"loss_changes":[7.2777754E-1,2.2448997E0,8.6525625E-1,0E0,1.1624173E0,2.9027503E0,0E0,7.925631E-1,9.4028866E-1,7.3387796E-1,0E0,1.5999761E0,5.661987E-1,0E0,0E0,2.6503768E0,1.1096766E0,0E0,0E0,0E0,0E0,0E0,0E0,0E0,0E0],"parents":[2147483647,0,0,1,1,2,2,4,4,5,5,7,7,8,8,9,9,11,11,12,12,15,15,16,16],"right_children":[2,4,6,-1,8,10,-1,12,14,16,-1,18,20,-1,-1,22,24,-1,-1,-1,-1,-1,-1,-1,-1],"split_conditions":[1E0,1E0,5.776147E5,-2.4083853E-1,1.33764E3,5.791786E5,1.5067628E-1,3.08566E5,9E1,4.382246E5,-3.5578403E-1,2.1529928E5,1.3030295E6,2.7920196E-2,-2.3645777E-1,4.424603E5,3.08566E5,3.4294188E-2,-2.2662656E-1,1.8372501E-1,-3.4076188E-2,1.506927E-3,-2.663873E-1,-5.7200223E-2,1.8055308E-1],"split_indices":[3,6,0,0,2,1,0,1,1,0,0,1,0,0,0,1,1,0,0,0,0,0,0,0,0],"split_type":[0,0,0,0,0,0,0,0,0,0,0,0,0,0,0,0,0,0,0,0,0,0,0,0,0],"sum_hessian":[3.5072018E2,2.4064972E1,3.266552E2,3.6607609E0,2.0404211E1,3.24256E2,2.399182E0,1.6590954E1,3.813258E0,3.2318823E2,1.0678024E0,1.2625222E1,3.9657314E0,1.653828E0,2.1594298E0,3.172313E2,5.9569225E0,1.1057007E1,1.5682158E0,2.8582244E0,1.1075069E0,3.1487222E2,2.3590822E0,2.1989772E0,3.7579453E0],"tree_param":{"num_deleted":"0","num_feature":"7","num_nodes":"25","size_leaf_vector":"1"}},{"base_weights":[-1.1220496E-2,-7.257199E-2,1.7461507E-2,1.379229E-1,-1.0624845E-1,3.774872E-1,-6.1651357E-3,4.0472686E-1,-1.492476E-1,-3.9772987E-1,-5.5993374E-2,1.7324938E-1,2.1372797E-1,-5.0795346E-1,7.050998E-3,-6.850067E-2,6.423193E-1,-2.8293285E-1,2.2359203E-1,1.9471034E-1,-1.5484981E-1,3.15482E-1,-1.5420565E-1,-2.2269627E-1,4.359693E-2,-2.4939702E-1,2.8759932E-2,7.327225E-2,2.5489068E-1,9.1414995E-2,-2.7721561E-2,8.65041E-2,-2.986831E-1,-4.293051E-1,-1.8061051E-2,-1.3932228E-5,1.6211614E-1,7.901713E-2,-1.5041877E-1,-1.1511175E-1,1.3619421E-2],"categories":[],"categories_nodes":[],"categories_segments":[],"categories_sizes":[],"default_left":[0,0,0,0,0,0,0,0,0,0,0,0,0,0,0,0,0,0,0,0,0,0,0,0,0,0,0,0,0,0,0,0,0,0,0,0,0,0,0,0,0],"id":38,"left_children":[1,3,5,7,9,11,13,15,17,-1,19,21,-1,23,25,-1,27,-1,29,31,33,35,-1,-1,-1,37,39,-1,-1,-1,-1,-1,-1,-1,-1,-1,-1,-1,-1,-1,-1],"loss_changes":[6.151795E-1,8.038816E-1,2.0314026E0,1.2702606E0,5.842711E0,8.825865E-1,1.4946173E0,1.4183931E0,2.6780908E0,0E0,2.354066E0,1.1843468E0,0E0,9.933592E-1,1.2322443E0,0E0,3.214898E-1,0E0,1.9427884E-1,3.292067E0,8.103905E0,6.588229E-1,0E0,0E0,0E0,2.3646832E0,1.4158496E0,0E0,0E0,0E0,0E0,0E0,0E0,0E0,0E0,0E0,0E0,0E0,0E0,0E0,0E0],"parents":[2147483647,0,0,1,1,2,2,3,3,4,4,5,5,6,6,7,7,8,8,10,10,11,11,13,13,14,14,16,16,18,18,19,19,20,20,21,21,25,25,26,26],"right_children":[2,4,6,8,10,12,14,16,18,-1,20,22,-1,24,26,-1,28,-1,30,32,34,36,-1,-1,-1,38,40,-1,-1,-1,-1,-1,-1,-1,-1,-1,-1,-1,-1,-1,-1],"split_conditions":[1.988247E4,1.0633E4,4.683805E4,1.075517E4,1.115545E4,9.884004E4,1E0,1.01E3,1.2157998E5,-3.9772987E-1,4.628025E4,7.266595E4,2.1372797E-1,1.3824744E6,3.357E3,-6.850067E-2,6.76715E3,-2.8293285E-1,4.5778912E5,4.766213E4,4.580751E4,2.1534E4,-1.5420565E-1,-2.2269627E-1,4.359693E-2,3.29503E3,6.385008E4,7.327225E-2,2.5489068E-1,9.1414995E-2,-2.7721561E-2,8.65041E-2,-2.986831E-1,-4.293051E-1,-1.8061051E-2,-1.3932228E-5,1.6211614E-1,7.901713E-2,-1.5041877E-1,-1.1511175E-1,1.3619421E-2],"split_indices":[2,1,2,0,0,0,3,1,0,0,0,0,0,0,1,0,0,0,0,1,1,1,0,0,0,0,2,0,0,0,0,0,0,0,0,0,0,0,0,0,0],"split_type":[0,0,0,0,0,0,0,0,0,0,0,0,0,0,0,0,0,0,0,0,0,0,0,0,0,0,0,0,0,0,0,0,0,0,0,0,0,0,0,0,0],"sum_hessian":[3.4787646E2,1.1033563E2,2.3754082E2,1.4790708E1,9.554493E1,1.3706241E1,2.2383458E2,7.4550343E0,7.3356733E0,2.776959E0,9.276797E1,9.456906E0,4.2493343E0,4.7834353E0,2.1905115E2,2.0450315E0,5.4100027E0,1.8554531E0,5.4802203E0,2.5960787E1,6.680718E1,8.283557E0,1.1733495E0,3.4201345E0,1.3633008E0,1.6277424E1,2.0277373E2,2.5985339E0,2.811469E0,4.389119E0,1.0911012E0,2.477001E1,1.1907777E0,3.6377544E0,6.3169426E1,3.8633292E0,4.4202275E0,5.348553E0,1.092887E1,7.006949E0,1.9576677E2],"tree_param":{"num_deleted":"0","num_feature":"7","num_nodes":"41","size_leaf_vector":"1"}},{"base_weights":[-1.2222158E-2,3.5485938E-1,-1.6957793E-2,-1.3803759E-2,1.5817921E-1,-2.1314472E-1,-3.962978E-3,-4.122395E-1,4.2159534E-1,4.2582923E-1,-1.4983004E-2,-7.52571E-1,-1.8288983E-1,2.0729487E-1,-5.976784E-2,6.574624E-1,-1.1298459E-1,-3.7597734E-1,-8.9291413E-4,6.207603E-2,-2.9896042E-1,8.5032664E-2,-1.4963976E-1,7.364979E-2,2.5479707E-1,2.0493707E-2,-1.6538778E-2],"categories":[],"categories_nodes":[],"categories_segments":[],"categories_sizes":[],"default_left":[0,0,0,0,0,0,0,0,0,0,0,0,0,0,0,0,0,0,0,0,0,0,0,0,0,0,0],"id":39,"left_children":[1,3,5,-1,-1,7,9,11,13,15,17,19,21,-1,-1,23,-1,-1,25,-1,-1,-1,-1,-1,-1,-1,-1],"loss_changes":[6.0183275E-1,3.2911187E-1,8.642568E-1,0E0,0E0,2.835372E0,1.518557E0,1.1532359E0,1.0613651E0,1.7374922E0,5.446951E0,1.6895857E0,1.7914915E0,0E0,0E0,3.119135E-1,0E0,0E0,1.1663733E0,0E0,0E0,0E0,0E0,0E0,0E0,0E0,0E0],"parents":[2147483647,0,0,1,1,2,2,5,5,6,6,7,7,8,8,9,9,10,10,11,11,12,12,15,15,18,18],"right_children":[2,4,6,-1,-1,8,10,12,14,16,18,20,22,-1,-1,24,-1,-1,26,-1,-1,-1,-1,-1,-1,-1,-1],"split_conditions":[6.9585E2,9E1,1.193E3,-1.3803759E-2,1.5817921E-1,3.3046128E5,5.028E3,2.275741E4,1.088287E6,4.87742E3,5.3773E3,1.16225E3,1.2427816E5,2.0729487E-1,-5.976784E-2,2.82333E3,-1.1298459E-1,-3.7597734E-1,8.45204E4,6.207603E-2,-2.9896042E-1,8.5032664E-2,-1.4963976E-1,7.364979E-2,2.5479707E-1,2.0493707E-2,-1.6538778E-2],"split_indices":[0,1,1,0,0,0,1,0,2,0,0,0,0,0,0,0,0,0,0,0,0,0,0,0,0,0,0],"split_type":[0,0,0,0,0,0,0,0,0,0,0,0,0,0,0,0,0,0,0,0,0,0,0,0,0,0,0],"sum_hessian":[3.4174457E2,3.4109619E0,3.3833362E2,1.2462707E0,2.1646914E0,2.0061182E1,3.1827243E2,1.5538013E1,4.523169E0,7.0155973E0,3.1125684E2,5.3370495E0,1.0200964E1,3.0755916E0,1.4475776E0,5.584309E0,1.4312884E0,2.512422E0,3.0874442E2,1.1127048E0,4.2243447E0,4.1611795E0,6.0397844E0,2.4986942E0,3.0856152E0,1.355385E2,1.732059E2],"tree_param":{"num_deleted":"0","num_feature":"7","num_nodes":"27","size_leaf_vector":"1"}},{"base_weights":[-9.453994E-3,-6.280166E-2,2.3332777E-2,6.496824E-2,-5.5381775E-1,-8.94887E-1,4.983975E-2,-6.631967E-2,2.4812102E-1,7.0847203E-3,-3.4412804E-1,-3.2000378E-1,-1.2243623E-2,3.4403792E-1,-1.3941989E-2,5.4932933E-2,-9.972297E-1,-2.2405642E-1,3.2258075E-1,1.844699E-1,-3.9447436E-1,7.139461E-1,-4.5611525E-1,-1.3769962E0,5.9406806E-2,-2.2746647E-2,9.6042104E-2,-3.3671854E-3,-3.4767038E-1,1.2166847E-1,-1.3935581E-1,3.3511403E-3,1.627885E-1,-2.1214376E-1,5.6874238E-2,1.4733696E-1,2.7401972E-1,-4.658969E-1,-1.2395482E-2,1.4024778E-1,-2.3600024E-3],"categories":[],"categories_nodes":[],"categories_segments":[],"categories_sizes":[],"default_left":[0,0,0,0,0,0,0,0,0,0,0,0,0,0,0,0,0,0,0,0,0,0,0,0,0,0,0,0,0,0,0,0,0,0,0,0,0,0,0,0,0],"id":40,"left_children":[1,3,5,7,9,11,13,15,17,19,-1,-1,-1,21,23,25,27,-1,29,31,33,35,-1,37,39,-1,-1,-1,-1,-1,-1,-1,-1,-1,-1,-1,-1,-1,-1,-1,-1],"loss_changes":[5.9823E-1,8.200678E0,5.2055597E0,2.5211627E0,8.985335E0,8.37132E-1,3.889804E0,6.992299E0,3.478645E0,1.131314E0,0E0,0E0,0E0,2.6553167E1,1.7189402E1,1.9428484E0,1.1244006E0,0E0,2.889658E0,6.760057E-1,1.0237548E0,9.5110893E-1,0E0,1.9995422E0,4.487739E0,0E0,0E0,0E0,0E0,0E0,0E0,0E0,0E0,0E0,0E0,0E0,0E0,0E0,0E0,0E0,0E0],"parents":[2147483647,0,0,1,1,2,2,3,3,4,4,5,5,6,6,7,7,8,8,9,9,13,13,14,14,15,15,16,16,18,18,19,19,20,20,21,21,23,23,24,24],"right_children":[2,4,6,8,10,12,14,16,18,20,-1,-1,-1,22,24,26,28,-1,30,32,34,36,-1,38,40,-1,-1,-1,-1,-1,-1,-1,-1,-1,-1,-1,-1,-1,-1,-1,-1],"split_conditions":[5.4632E4,5.524748E4,5.344385E4,2.504078E4,4.545E3,1.00905E5,8.45204E4,2.505937E4,2.505937E4,6.162216E5,-3.4412804E-1,-3.2000378E-1,-1.2243623E-2,8.477155E4,8.252713E4,1.6113E4,9E1,-2.2405642E-1,5.158987E4,3.3046128E5,5.0692353E5,7.075672E4,-4.5611525E-1,1.9675175E5,1.0685022E5,-2.2746647E-2,9.6042104E-2,-3.3671854E-3,-3.4767038E-1,1.2166847E-1,-1.3935581E-1,3.3511403E-3,1.627885E-1,-2.1214376E-1,5.6874238E-2,1.4733696E-1,2.7401972E-1,-4.658969E-1,-1.2395482E-2,1.4024778E-1,-2.3600024E-3],"split_indices":[1,0,0,1,1,1,0,0,0,2,0,0,0,1,1,1,1,0,1,0,0,0,0,0,0,0,0,0,0,0,0,0,0,0,0,0,0,0,0,0,0],"split_type":[0,0,0,0,0,0,0,0,0,0,0,0,0,0,0,0,0,0,0,0,0,0,0,0,0,0,0,0,0,0,0,0,0,0,0,0,0,0,0,0,0],"sum_hessian":[3.4018433E2,1.2914151E2,2.1104283E2,1.0316427E2,2.5977236E1,5.002216E0,2.0604062E2,6.046182E1,4.2702454E1,1.3860818E1,1.2116418E1,3.9572988E0,1.0449171E0,3.592764E1,1.7011298E2,5.4326668E1,6.13515E0,2.3444324E0,4.035802E1,9.988917E0,3.8719E0,3.0494488E1,5.4331503E0,7.7791085E0,1.6233386E2,3.6865158E1,1.746151E1,1.0148975E0,5.1202526E0,3.694753E1,3.4104905E0,7.4266357E0,2.5622818E0,2.3845756E0,1.4873245E0,1.6038788E1,1.4455701E1,6.729685E0,1.0494239E0,2.2131779E1,1.4020209E2],"tree_param":{"num_deleted":"0","num_feature":"7","num_nodes":"41","size_leaf_vector":"1"}},{"base_weights":[-1.3193687E-2,-2.63225E-2,1.16379164E-1,9.437102E-3,-7.2899204E-1,-1.0425161E0,3.7641862E-1,-6.840688E-3,5.0572354E-1,1.7478205E-1,-1.2177657E0,-3.977677E-2,-3.735467E-1,7.499133E-1,9.7398624E-2,1.0539749E-2,-4.167238E-1,-4.1905157E-2,6.185447E-1,3.2128993E-1,-5.3495754E-2,-4.4493386E-1,9.443305E-2,2.6132852E-1,-6.2273078E-2,-5.6395286E-1,3.7677515E-1,-5.6745834E-3,7.5041264E-2,2.4806501E-1,1.00694336E-1,1.230129E-2,1.5900463E-1,2.593357E-1,1.3404873E-2],"categories":[],"categories_nodes":[],"categories_segments":[],"categories_sizes":[],"default_left":[0,0,0,0,0,0,0,0,0,0,0,0,0,0,0,0,0,0,0,0,0,0,0,0,0,0,0,0,0,0,0,0,0,0,0],"id":41,"left_children":[1,3,5,7,9,11,13,15,17,19,21,-1,-1,23,25,27,-1,-1,29,31,-1,-1,-1,-1,-1,-1,33,-1,-1,-1,-1,-1,-1,-1,-1],"loss_changes":[5.597853E-1,7.494053E0,9.521589E0,2.3020082E0,6.592688E0,9.074793E-1,2.5819209E0,6.656753E0,7.453294E-1,3.6477208E-1,4.3295937E0,0E0,0E0,1.4275222E0,9.398433E0,1.938719E0,0E0,0E0,1.8730569E-1,2.449024E-1,0E0,0E0,0E0,0E0,0E0,0E0,2.3286805E0,0E0,0E0,0E0,0E0,0E0,0E0,0E0,0E0],"parents":[2147483647,0,0,1,1,2,2,3,3,4,4,5,5,6,6,7,7,8,8,9,9,10,10,13,13,14,14,15,15,18,18,19,19,26,26],"right_children":[2,4,6,8,10,12,14,16,18,20,22,-1,-1,24,26,28,-1,-1,30,32,-1,-1,-1,-1,-1,-1,34,-1,-1,-1,-1,-1,-1,-1,-1],"split_conditions":[3.2605284E5,3.198871E5,3.2594884E5,2.8698538E5,9E1,1.5866716E5,3.9185544E5,2.9444934E5,2.3256538E5,1.088287E6,3.1778712E5,-3.977677E-2,-3.735467E-1,3.8232988E5,3.9264747E5,2.0495138E5,-4.167238E-1,-4.1905157E-2,3.0264816E5,6.078477E4,-5.3495754E-2,-4.4493386E-1,9.443305E-2,2.6132852E-1,-6.2273078E-2,-5.6395286E-1,4.6144253E5,-5.6745834E-3,7.5041264E-2,2.4806501E-1,1.00694336E-1,1.230129E-2,1.5900463E-1,2.593357E-1,1.3404873E-2],"split_indices":[1,0,0,0,1,0,1,1,1,2,1,0,0,0,0,1,0,0,0,2,0,0,0,0,0,0,1,0,0,0,0,0,0,0,0],"split_type":[0,0,0,0,0,0,0,0,0,0,0,0,0,0,0,0,0,0,0,0,0,0,0,0,0,0,0,0,0,0,0,0,0,0,0],"sum_hessian":[3.2626443E2,2.9697107E2,2.9293383E1,2.8352856E2,1.3442502E1,4.8169646E0,2.4476418E1,2.7547928E2,8.049279E0,4.943696E0,8.498806E0,1.1786591E0,3.6383057E0,9.744634E0,1.4731784E1,2.7303842E2,2.440844E0,1.16227E0,6.8870096E0,3.5576544E0,1.3860416E0,7.271976E0,1.2268295E0,8.729982E0,1.014652E0,1.1146096E0,1.3617174E1,2.439673E2,2.9071138E1,2.858766E0,4.0282435E0,2.0292034E0,1.528451E0,4.8669753E0,8.750198E0],"tree_param":{"num_deleted":"0","num_feature":"7","num_nodes":"35","size_leaf_vector":"1"}},{"base_weights":[-1.181426E-2,-2.6413051E-2,1.126981E-1,-1.3126648E-2,-3.1528977E-1,2.0011978E-1,-2.836345E-1,-2.0800184E-2,4.6940318E-1,-5.0162077E-1,3.3025303E-1,5.320909E-2,5.7549393E-1,-2.944206E-1,3.447655E-1,-2.5693955E-2,1.6056414E-1,-2.6379468E-2,2.0466912E-1,-8.540535E-2,-8.300539E-1,1.4882699E-1,-3.2865647E-3,1.8293619E-1,-5.7592297E-1,7.0148253E-1,3.0592797E-2,3.7213287E-4,1.8189692E-1,-2.1316437E-3,-5.5580214E-2,-2.431548E-1,7.634289E-2,-3.0072302E-1,-1.0550011E-1,1.6460225E-1,1.0235036E-2,-2.3332722E-3,-2.3089594E-1,2.5004032E-1,2.4220094E-2],"categories":[],"categories_nodes":[],"categories_segments":[],"categories_sizes":[],"default_left":[0,0,0,0,0,0,0,0,0,0,0,0,0,0,0,0,0,0,0,0,0,0,0,0,0,0,0,0,0,0,0,0,0,0,0,0,0,0,0,0,0],"id":42,"left_children":[1,3,5,7,9,11,13,15,17,19,21,23,25,-1,27,29,-1,-1,-1,31,33,-1,-1,35,37,39,-1,-1,-1,-1,-1,-1,-1,-1,-1,-1,-1,-1,-1,-1,-1],"loss_changes":[5.8583426E-1,1.100519E0,1.2292547E0,1.0324497E0,1.6826794E0,1.5306304E0,